{"gru.weight_ih_l0": [[-0.0026469905860722065], [0.18966144323349], [-0.2909903824329376], [-0.26019373536109924], [-0.13617262244224548], [0.0948079451918602], [-0.007005016785115004], [0.28032875061035156], [-0.03137575834989548], [0.09355466812849045], [-0.10684845596551895], [-0.06949635595083237], [-0.33776670694351196], [-0.23415207862854004], [-0.14574287831783295], [0.013096880167722702], [0.13977210223674774], [0.21214008331298828], [-0.23968836665153503], [-0.15395936369895935], [0.12841664254665375], [0.29358646273612976], [-0.07276134938001633], [0.26456815004348755]], "gru.weight_hh_l0": [[-0.05698692053556442, 0.037410933524370193, 0.3201341927051544, -0.32798099517822266, -0.22257526218891144, -0.08950743079185486, -0.13781508803367615, 0.30547040700912476], [-0.22916610538959503, -0.16275224089622498, -0.24700669944286346, -0.33112430572509766, -0.20638342201709747, 0.30391380190849304, 0.15776202082633972, 0.17135761678218842], [0.01859392412006855, -0.18126098811626434, 0.05981581658124924, -0.33011093735694885, -0.2554657459259033, -0.18226736783981323, 0.22307024896144867, 0.20729584991931915], [-0.15679916739463806, -0.01275704987347126, 0.22611884772777557, 0.35147911310195923, 0.14031903445720673, 0.04776253551244736, 0.23705270886421204, -0.20817306637763977], [0.06588256359100342, -0.27411189675331116, -0.24504294991493225, -0.18263986706733704, 0.1599733829498291, 0.14218516647815704, -0.20942823588848114, 0.10681098699569702], [0.19409091770648956, -0.04462457820773125, 0.013499214313924313, 0.08191998302936554, 0.21933624148368835, 0.33947986364364624, -0.272456556558609, -0.12956660985946655], [0.13894997537136078, 0.29293644428253174, 0.30766475200653076, 0.31196022033691406, 0.07036226242780685, -0.30744388699531555, 0.03252425789833069, -0.2211848944425583], [-0.32949554920196533, 0.3141295313835144, 0.26882776618003845, -0.35267937183380127, 0.06617531180381775, -0.05955960601568222, -0.05818115174770355, -0.1618414968252182], [0.1359611302614212, -0.2094109058380127, 0.1296095997095108, 0.17879481613636017, 0.25309881567955017, 0.1321975439786911, -0.349924236536026, -0.22934898734092712], [0.1765345185995102, 0.07399920374155045, -0.27580133080482483, -0.20358292758464813, 0.3326050937175751, 0.23823058605194092, -0.15415816009044647, -0.08898400515317917], [-0.33679428696632385, -0.006354817189276218, -0.2662465274333954, -0.2727157771587372, -0.01948065310716629, 0.05308429151773453, -0.14479081332683563, 0.2097906619310379], [-0.21515105664730072, 0.32080376148223877, 0.24229009449481964, -0.2981455326080322, -0.08799389749765396, 0.01595325581729412, 0.051583822816610336, 0.08385376632213593], [0.13874433934688568, 0.021177906543016434, -0.1725088655948639, 0.1672975718975067, -0.339145690202713, -0.20955345034599304, -0.08850497007369995, -0.17222057282924652], [-0.12368477135896683, -0.28978002071380615, -0.07520616054534912, 0.07557431608438492, -0.23032793402671814, -0.018144134432077408, 0.2530914843082428, -0.03634537756443024], [0.009826031513512135, -0.030500661581754684, 0.07155261933803558, 0.22480319440364838, 0.3349021077156067, 0.22452616691589355, 0.3356683552265167, -0.02556956559419632], [-0.31760460138320923, -0.16761161386966705, 0.24073635041713715, -0.0022919033654034138, -0.17573241889476776, -0.2709321081638336, -0.33087366819381714, -0.29840195178985596], [-0.07171361893415451, 0.1938907951116562, 0.19114547967910767, -0.34097814559936523, 0.22054025530815125, -0.2766588628292084, -0.0747448205947876, -0.14335621893405914], [-0.06809978187084198, -0.06941762566566467, -0.31726109981536865, -0.3052713871002197, -0.055323850363492966, 0.004572216421365738, -0.16061042249202728, 0.1331832855939865], [-0.3182186782360077, -0.023860342800617218, 0.31092172861099243, -0.14421159029006958, 0.31925979256629944, 0.12804068624973297, -0.3190681040287018, 0.22369228303432465], [-0.04079810529947281, -0.15782864391803741, 0.2827201187610626, -0.2857047915458679, 0.03793802112340927, -0.07402301579713821, 0.25247693061828613, 0.09869249165058136], [0.16988429427146912, 0.12486054003238678, -0.08502064645290375, -0.07435420155525208, -0.29135677218437195, 0.19157083332538605, 0.28071364760398865, 0.24191001057624817], [-0.2493888884782791, 0.015768442302942276, -0.24923184514045715, -0.19462554156780243, -0.20601749420166016, 0.12082510441541672, -0.21068711578845978, -0.007713547442108393], [0.014873327687382698, 0.227908656001091, -0.2672581076622009, -0.24271872639656067, -0.20529484748840332, 0.24746382236480713, -0.12709006667137146, 0.2982182800769806], [0.1278475672006607, 0.044769056141376495, -0.002631859853863716, -0.06989098340272903, 0.04435905069112778, -0.08073203265666962, -0.002484219614416361, 0.045110952109098434]], "gru.bias_ih_l0": [-0.2765512764453888, -0.18530844151973724, 0.28549179434776306, -0.2869250774383545, -0.025387322530150414, 0.3497487008571625, 0.12771658599376678, 0.010010171681642532, -0.3063928782939911, 0.17514252662658691, -0.25182926654815674, -0.100361168384552, -0.11862293630838394, -0.052356794476509094, 0.003867268329486251, 0.29161348938941956, 0.04413719102740288, 0.31667521595954895, 0.2162730097770691, -0.2235213816165924, 0.15857014060020447, -0.24992549419403076, -0.14984481036663055, 0.10398807376623154], "gru.bias_hh_l0": [0.11674053221940994, 0.2652456760406494, -0.11381444334983826, 0.0005659899907186627, 0.18201760947704315, -0.3419187068939209, 0.25561225414276123, -0.29236122965812683, 0.004872850142419338, -0.060110002756118774, -0.18620701134204865, 0.04672951623797417, 0.2923599183559418, -0.10335056483745575, -0.2099025547504425, -0.13075776398181915, -0.3504238426685333, 0.15959186851978302, -0.1697988659143448, -0.23594041168689728, -0.20368260145187378, 0.20327766239643097, 0.18723256886005402, 0.27135995030403137], "dense.weight": [[0.12824198603630066, -0.11807258427143097, -0.09879983961582184, 0.10445025563240051, 0.2906331419944763, 0.09612840414047241, -0.16728214919567108, -0.16619744896888733]], "dense.bias": [-0.3342737853527069]}