{"gru.weight_ih_l0": [[-1.161061406135559], [-0.7718375325202942], [-0.18710322678089142], [0.23984409868717194], [0.3588864803314209], [0.5518748164176941], [-1.1559100151062012], [-0.4308362901210785], [0.2784670293331146], [-0.5734809041023254], [1.3249475955963135], [0.3602469861507416], [0.25876787304878235], [-3.0788214206695557], [-0.0940425917506218], [0.027543874457478523], [-1.1147210597991943], [2.101146936416626], [-0.02861833944916725], [-0.9481602311134338], [-0.7173933386802673], [-0.6740455627441406], [-1.2951840162277222], [0.296427458524704], [0.5198872685432434], [-0.39256659150123596], [0.39681553840637207], [-0.4678133726119995], [-0.4231419861316681], [-0.2628239393234253], [0.42614349722862244], [-0.08793491870164871], [0.8036008477210999], [-0.5311935544013977], [0.5268928408622742], [-0.44729670882225037], [-0.28621920943260193], [-0.28818193078041077], [-1.1105469465255737], [2.9615566730499268], [1.407933235168457], [-1.3850016593933105], [-0.1664879471063614], [-0.41756558418273926], [-0.8577739000320435], [-0.3230109214782715], [0.45848509669303894], [0.016599508002400398], [3.7779858112335205], [-1.1855425834655762], [-0.9790681004524231], [0.45573970675468445], [0.27403709292411804], [0.059709686785936356], [-0.2549803555011749], [-0.12904199957847595], [-0.36954089999198914], [-0.05698450654745102], [-0.5283898115158081], [1.2210620641708374], [-1.0211511850357056], [-1.5436288118362427], [-0.011254208162426949], [-2.2691307067871094], [-1.8122745752334595], [2.550905466079712], [-0.20485389232635498], [0.045112334191799164], [0.40432214736938477], [0.09052286297082901], [-1.5775668621063232], [0.17635884881019592], [0.2971024215221405], [-2.9328792095184326], [0.9976955056190491], [-0.29867130517959595], [3.2379167079925537], [-7.42515230178833], [-0.7265973687171936], [-0.13663063943386078], [-4.322812080383301], [1.2864798307418823], [-0.03426022082567215], [3.729363203048706], [0.5623196959495544], [-4.688467979431152], [-7.113062381744385], [5.27376127243042], [0.4564621150493622], [3.678854465484619], [0.1689857691526413], [3.008312940597534], [-3.3919155597686768], [0.1084318459033966], [0.39186716079711914], [-5.8359479904174805], [-0.858962893486023], [1.159270167350769], [7.861863136291504], [-0.06702971458435059], [0.15730136632919312], [0.03417122736573219], [-1.8643962144851685], [-2.053586959838867], [-2.2903800010681152], [-0.6194563508033752], [-0.005505675915628672], [-0.8647140264511108], [-4.481269359588623], [-1.076517939567566], [0.507816731929779], [0.27187201380729675], [-3.259725332260132], [2.171854019165039], [-2.0208401679992676], [1.3406703472137451], [-0.18520842492580414], [-3.0767014026641846], [-0.11219405382871628], [0.6403384208679199], [2.7873969078063965], [0.14224019646644592], [-0.16600799560546875], [0.6474083662033081], [-1.9167855978012085], [-1.708583950996399], [-0.01383577473461628], [-2.3761866092681885], [-1.11422860622406], [-0.24037370085716248], [0.12897001206874847], [0.08847445994615555], [0.05454566702246666], [0.25131747126579285], [-0.26489147543907166], [-0.13619807362556458], [0.13524825870990753], [0.4926801919937134], [-1.1745514869689941], [0.1949237883090973], [-0.43851715326309204], [1.1338403224945068], [-0.054483477026224136], [0.0991218313574791], [-0.4212018847465515], [-0.8515279293060303], [-0.2609099745750427], [0.5932129621505737], [-0.6862427592277527], [0.4945472478866577], [-0.4049414098262787], [0.9382892847061157], [-0.15490920841693878], [-0.4517374038696289], [-0.28404030203819275], [-1.4302301406860352], [0.19285684823989868], [0.1178608387708664], [-0.026593584567308426], [0.4174853563308716], [-0.15559691190719604], [-0.3706032931804657], [0.5730443000793457], [0.20838189125061035], [0.2937523424625397], [0.12772858142852783], [-0.24024678766727448], [-0.23259472846984863], [0.057447705417871475], [-0.8975156545639038], [-0.243245467543602], [-0.20453296601772308], [0.5054166316986084], [-0.21282705664634705], [-0.32769879698753357], [-0.05415188521146774], [-0.08042959868907928], [-0.06472217291593552], [0.41605129837989807], [-2.575855016708374], [0.13816532492637634], [-0.16893112659454346], [-0.26660650968551636], [0.08707251399755478], [-0.40790513157844543], [-0.0876958966255188], [-0.28458479046821594], [0.3131663501262665], [0.5304572582244873], [-0.49311304092407227], [0.15638287365436554], [-0.3198273777961731]], "gru.weight_hh_l0": [[0.44667431712150574, -0.5985991954803467, 0.5837686657905579, 0.34363415837287903, 0.344601035118103, -1.0728439092636108, -0.0659044086933136, 0.05988634005188942, -0.05061986297369003, 0.13977976143360138, 0.15008732676506042, 0.2992370128631592, -0.6510230302810669, 0.14968128502368927, -0.7900865077972412, -0.5322162508964539, -0.4548495411872864, 1.0055930614471436, 0.07643012702465057, -0.04407387226819992, -0.3567928671836853, 0.7869689464569092, -0.9709852933883667, 0.48752596974372864, 0.2855147123336792, -0.2232150286436081, -0.5020611882209778, 0.0923016369342804, -1.2599976062774658, 0.13973961770534515, -0.15598182380199432, 0.2999826967716217, -0.17098818719387054, 0.5027763843536377, -0.5938771367073059, 0.1142670065164566, 0.16330190002918243, 0.20471327006816864, -0.5559387803077698, -0.3396020233631134, -0.14191937446594238, 0.40975844860076904, -0.23160143196582794, -1.1595439910888672, 0.13698582351207733, 0.1833600401878357, -0.38935768604278564, -0.3629138469696045, 0.21360966563224792, 0.14611414074897766, 0.43867671489715576, 1.9226105213165283, -1.0351991653442383, 0.1342078596353531, 0.9625352621078491, 0.16981028020381927, -0.12353509664535522, 0.05321122333407402, -0.008332365192472935, -0.5749093890190125, -0.1536162942647934, -0.3269045352935791, 0.006307477131485939, -0.5987430810928345], [-0.5290693640708923, 1.1780179738998413, -0.8445013165473938, 0.7150243520736694, -0.06609509885311127, 1.5473090410232544, -0.7400615811347961, -0.5759243369102478, -0.3442341685295105, 0.8960325717926025, 0.08308401703834534, 0.293312132358551, 1.3119922876358032, 1.2677360773086548, 0.9252203702926636, 0.2630152702331543, -1.0007190704345703, -0.6593331694602966, -0.45470643043518066, -0.11170004308223724, 0.4836065173149109, 0.5423157811164856, -0.560975193977356, -1.534173607826233, 0.23988868296146393, -0.4699936807155609, 1.088334321975708, -0.05342670530080795, 1.215618371963501, -0.5129653215408325, -0.13627339899539948, 0.7042132019996643, 0.4653347432613373, 0.5970898270606995, 0.24489979445934296, -0.6054713726043701, 0.2534726560115814, -0.8480053544044495, -0.40159881114959717, -1.002766728401184, -0.2571718692779541, 0.033746395260095596, 0.20169486105442047, -0.027153613045811653, 0.7261910438537598, -0.17324112355709076, 0.5013129115104675, 0.007468018680810928, -0.6421751379966736, -1.0031300783157349, 0.5706140995025635, 0.6211228370666504, -0.5230981111526489, 0.6507986187934875, 0.8745433688163757, 1.5590503215789795, -0.2708175480365753, 0.7616393566131592, 0.18071942031383514, -0.5802755355834961, 0.1079062968492508, 0.23438432812690735, 0.4279211461544037, 0.23798829317092896], [1.3938184976577759, 0.5179234147071838, -0.3185065984725952, 0.14333772659301758, -0.6120666265487671, 0.32554981112480164, 0.4673086106777191, 0.4465945363044739, -0.23874559998512268, -0.19334279000759125, 0.4070132374763489, 0.006486603524535894, -0.42369043827056885, -0.5199972987174988, -0.11389566212892532, -0.3482559621334076, 0.03673410043120384, -0.10885623097419739, 0.26088303327560425, 1.0163452625274658, 0.1327521950006485, -0.6318524479866028, 0.3422718048095703, 0.1789095550775528, 0.6955748796463013, 0.45351549983024597, -0.2891331613063812, 0.10987941920757294, -0.19053256511688232, 0.026632947847247124, 0.37990573048591614, -0.02195117622613907, -0.34598949551582336, 0.24666112661361694, 0.5093948245048523, 0.17216865718364716, -0.05502908676862717, 0.23366329073905945, 1.534505844116211, -0.13828405737876892, -0.35033005475997925, -0.2951536178588867, -0.5846981406211853, 0.22598476707935333, -0.14556974172592163, -0.003029357874765992, 0.09421982616186142, -0.13874255120754242, 0.4324563443660736, 0.010257279500365257, -1.0170704126358032, 0.21411041915416718, 0.7610957622528076, 0.37924253940582275, 0.7347442507743835, -0.5296441316604614, -0.8283073306083679, -0.09051965177059174, 1.218196153640747, -0.3132152259349823, 0.5726757049560547, 0.17127369344234467, -0.0370245985686779, -0.5550669431686401], [-0.695521354675293, -0.5134451985359192, -0.17384524643421173, 0.309039831161499, -0.22193694114685059, 0.24970923364162445, 0.4031153619289398, 0.35814738273620605, 0.4408958852291107, -0.23954710364341736, 0.1659347414970398, -0.12855742871761322, -0.2721271812915802, -0.39190757274627686, -0.5531512498855591, -0.7373793125152588, -0.31461408734321594, 0.4970444440841675, 0.4501136243343353, -0.08901973068714142, -0.6117382645606995, -0.3172272741794586, -0.05854008346796036, 0.14031685888767242, 0.10659132897853851, 0.06943142414093018, -0.05963416025042534, -0.3861597180366516, -0.393449604511261, 0.4706019461154938, -0.3897559642791748, 0.011816984042525291, -0.4669778048992157, -0.17552386224269867, -0.2458006888628006, -0.002037254860624671, -0.23388762772083282, 0.6047947406768799, 0.41794896125793457, -0.0826798677444458, -0.9327751398086548, 0.16337764263153076, -0.9617915749549866, 0.15075458586215973, 0.06902702152729034, -0.392276406288147, -0.17491009831428528, -0.03973759338259697, 0.7359223365783691, 0.04322154447436333, 0.1211385577917099, 0.6830610632896423, 0.6562774777412415, -0.03372802212834358, -0.15372127294540405, -0.325459361076355, 0.1587252914905548, -0.43435394763946533, 0.5848785042762756, 0.13069568574428558, 0.8424925208091736, -0.05119616910815239, 0.02202097699046135, 0.04425671324133873], [0.8598260283470154, 0.11854853481054306, -0.19969135522842407, -0.3045596480369568, 0.37496116757392883, 1.100183367729187, -0.10080179572105408, 0.5881209969520569, 0.2974622845649719, 0.29305678606033325, 0.028483128175139427, 0.3873504400253296, 0.08377523720264435, -0.08869042247533798, 1.0049874782562256, -0.24792063236236572, -0.12215715646743774, -0.5137673020362854, -0.5891750454902649, -0.11782167851924896, 0.3616422414779663, 0.14869444072246552, 0.0868469774723053, -0.04827399551868439, 0.4710116684436798, 0.6142021417617798, 0.7769063115119934, -0.036282096058130264, 1.018865704536438, -0.030550699681043625, 0.562806248664856, 0.22748112678527832, -0.14616645872592926, 0.2584352195262909, 0.7359317541122437, -0.8239536285400391, -0.746986448764801, 0.79732346534729, -0.2959897518157959, -0.18327616155147552, 0.019186608493328094, 0.2896343469619751, 0.44507354497909546, -0.7880402207374573, 0.11356689780950546, 0.17554742097854614, 0.2137906551361084, 0.41254687309265137, -0.07508416473865509, 0.014726105146110058, -0.13465182483196259, -0.16947661340236664, -0.8511925935745239, -0.08094030618667603, 0.22956639528274536, 0.37686529755592346, -0.4551451802253723, 1.141223430633545, -1.1186174154281616, -0.1482984572649002, 0.34110796451568604, -0.26073911786079407, -0.09612064063549042, -0.13432088494300842], [0.4032541811466217, 0.3440838158130646, 0.4780607223510742, -0.4083939790725708, -0.03174673020839691, -0.5591626167297363, -0.17353025078773499, -0.3534505367279053, -0.7760675549507141, 0.3467385470867157, -0.6673234105110168, -0.0915416032075882, -0.29652467370033264, 0.07380881905555725, -0.41027870774269104, 0.54471355676651, 0.7285455465316772, 0.24462445080280304, -0.20023305714130402, -0.05749814957380295, 0.38739433884620667, 0.3484419882297516, 0.015504641458392143, -0.5023514628410339, -0.48347583413124084, 0.57267165184021, 0.42789095640182495, -1.0667847394943237, 1.2087349891662598, -0.8727504014968872, 0.011846124194562435, 0.24011695384979248, 0.5598120093345642, -0.635893702507019, -0.3980328142642975, -0.038469668477773666, 0.4170612394809723, -0.33025693893432617, 1.1958831548690796, -0.1864132285118103, -0.7910123467445374, -1.095154881477356, 0.8078162670135498, 0.4074399173259735, 0.056242410093545914, 0.9266384840011597, 0.4296855628490448, 0.12262983620166779, -0.4946991801261902, 0.3201914131641388, -0.4020376205444336, -1.247412919998169, 0.23147621750831604, 1.1692278385162354, -0.5199781060218811, 0.05630918964743614, 0.009894464164972305, 0.2902088165283203, -0.6331800222396851, 0.6194271445274353, -0.12443197518587112, 0.46324852108955383, 0.5493062734603882, -0.09804993867874146], [-0.08775722980499268, 0.28879275918006897, -0.4932924807071686, 1.1701858043670654, 0.8270717859268188, 0.5761565566062927, -0.5761293172836304, -0.41624370217323303, 0.025608481839299202, 1.3495441675186157, -0.25159308314323425, 1.160009503364563, -0.22748781740665436, -0.27425992488861084, -0.11542755365371704, 1.1421786546707153, -0.4241059124469757, -0.6001765727996826, -0.8320544362068176, 0.01852833479642868, 0.4595962166786194, 0.8067887425422668, 0.5552420616149902, -0.3069242238998413, -0.6495335102081299, 0.8374812006950378, 0.0247596874833107, -0.3059055209159851, 0.1696496307849884, 0.16041605174541473, 0.7822809815406799, 0.6467655301094055, 0.4316192865371704, 0.33989641070365906, -0.4370129704475403, -0.620293140411377, 0.07065311074256897, 1.0240849256515503, -0.3509763777256012, -0.7744528651237488, -0.42194122076034546, 0.24389326572418213, 0.06975322216749191, -0.9925392270088196, 0.39016208052635193, 0.6246578693389893, 0.6934708952903748, 0.11906412243843079, -0.5937994718551636, -0.5995043516159058, 0.34319669008255005, -0.47376224398612976, 0.2306881695985794, -0.7740597724914551, 0.42521435022354126, 0.09789159148931503, 0.04350126534700394, -0.23580683767795563, -0.225204735994339, 0.3923129737377167, -0.7319793701171875, -0.3189314305782318, 0.631416380405426, 0.3030409812927246], [0.18679040670394897, -0.5156384706497192, 0.03959134966135025, 0.053192052990198135, -0.5078558921813965, -0.784652590751648, 0.4641055464744568, -0.5040305256843567, -0.11873596906661987, -0.4510907828807831, -0.015027627348899841, -0.48528629541397095, -0.8010883331298828, -0.046540532261133194, 0.04225558415055275, -0.8282618522644043, 0.13220800459384918, 0.009815843775868416, 0.24214760959148407, 0.3378164768218994, -0.05286751687526703, -0.39654436707496643, 0.0977984368801117, 0.09557120501995087, -0.23438529670238495, -0.8480418920516968, -0.14259813725948334, -0.1487419754266739, -0.12520305812358856, 0.3938816487789154, -0.841015636920929, -0.04798157140612602, -0.344436913728714, -0.23516231775283813, 0.3776875436306, -0.10556326061487198, -0.34360238909721375, -0.13705797493457794, 0.12087986618280411, 0.3046409785747528, 0.08301706612110138, -0.6668453216552734, -0.05811154842376709, 0.9811699986457825, -0.3614369034767151, -0.43317532539367676, -0.2520246207714081, 0.5295695066452026, 0.5400011539459229, -0.1597726047039032, -0.8597490787506104, 0.008338000625371933, 0.14160451292991638, 0.3935927152633667, 0.39142560958862305, -0.2521020472049713, 0.22093002498149872, -0.7023776173591614, 0.47434723377227783, -0.0928070992231369, 0.5451816916465759, -0.03174496069550514, -0.5216575264930725, -0.4008897542953491], [0.6412758827209473, -0.2484956532716751, -0.03442038968205452, -0.3491533398628235, -0.8311174511909485, 0.690581202507019, -0.6161260008811951, -0.17259395122528076, -0.7768634557723999, 0.3697301745414734, 0.04297091066837311, 0.34680473804473877, 2.074950933456421, 0.722156286239624, -0.3474733531475067, -0.12185459583997726, -0.1360408365726471, 1.3623905181884766, -0.012946409173309803, 0.32614362239837646, 0.020928293466567993, 0.07502583414316177, -0.1496051400899887, 1.3452290296554565, 1.1063605546951294, 1.399829626083374, 0.8584582805633545, 0.02362445741891861, 0.05414239689707756, -0.9913444519042969, -0.5006735920906067, 0.3439502418041229, 0.5242857336997986, -0.0011868191650137305, -0.8488634824752808, -0.21583884954452515, -0.6905587315559387, -0.84389728307724, -0.1706344038248062, -0.4118574857711792, -1.4436029195785522, -1.0204510688781738, 0.14184880256652832, -0.13260845839977264, 0.04089779406785965, 0.0843617171049118, 0.4581563174724579, -0.6430345177650452, -0.05821835622191429, -0.059220217168331146, 0.6653556227684021, 0.5738644003868103, 0.2217448353767395, 0.0808853730559349, -0.16038182377815247, 0.2349885106086731, 0.04818982630968094, 1.2118618488311768, 0.2665763795375824, -0.45107027888298035, -0.6812264919281006, 0.44498416781425476, -0.11759218573570251, 0.3065361976623535], [0.15923039615154266, 0.7282758951187134, -0.28378328680992126, 0.34487760066986084, 0.6443414092063904, 0.61578369140625, -0.5485089421272278, -0.7985930442810059, -0.7166231870651245, 0.41999125480651855, 0.1554999053478241, 0.41500431299209595, 0.5133191347122192, -0.02597232721745968, 0.7022724747657776, 0.2420298159122467, -0.7523528337478638, 0.3239172101020813, -1.104886531829834, -0.44963541626930237, 0.5396864414215088, 0.1896897256374359, -0.45962396264076233, 0.029781509190797806, -0.3673574924468994, 1.0213526487350464, 0.12421345710754395, -0.226342111825943, 0.5104999542236328, 0.5919590592384338, 0.026385480538010597, 0.2651697099208832, 0.7149787545204163, 0.7448652386665344, -0.5245119333267212, -0.7950504422187805, 0.4512318968772888, 0.48294907808303833, 0.09869558364152908, -0.44629180431365967, -0.3464489281177521, 0.3334423899650574, 0.3338038921356201, -0.4945531189441681, 0.4139542281627655, 0.6654564738273621, 0.9619932770729065, -0.6228935718536377, -0.09850239008665085, -0.5058814287185669, 0.7154292464256287, -0.49657192826271057, -0.017865514382719994, -0.19999568164348602, 1.2018765211105347, 0.2219158411026001, 0.26071494817733765, 0.4795083701610565, -0.043769434094429016, 0.7520231604576111, -0.7369221448898315, -0.6476354002952576, 0.9342632293701172, 0.7002750039100647], [-2.482759952545166, -1.955430507659912, 0.6516191959381104, 1.248052716255188, -0.850146472454071, 1.7423075437545776, 0.4824430048465729, 0.5459405183792114, 1.0427961349487305, 0.2849254906177521, 0.574242889881134, 1.0982979536056519, 0.3311961591243744, 2.358980894088745, -1.5342073440551758, -0.9325805306434631, -1.015319585800171, -3.5442919731140137, 0.5992204546928406, 0.8803116083145142, -0.3289375603199005, 1.6448227167129517, -1.5939757823944092, 1.2682942152023315, 0.24671129882335663, -0.28091123700141907, -0.7968969345092773, -1.5083239078521729, 1.2416906356811523, 2.4329121112823486, -1.8156920671463013, 0.4008867144584656, -0.4454011619091034, -1.97565495967865, 2.1614038944244385, 0.7469210624694824, 0.6666897535324097, 0.8980389833450317, 1.4131429195404053, 0.140927255153656, 2.0490128993988037, -1.0466094017028809, -1.9230155944824219, -0.26356300711631775, 0.8862240314483643, -2.3498942852020264, -0.9281218647956848, -0.4186460077762604, 0.40014079213142395, 0.6676502823829651, 2.4706549644470215, -5.905757904052734, 0.7258297801017761, -1.5398250818252563, 0.2123563587665558, -0.9729865193367004, -2.1160545349121094, -0.03749506175518036, -1.457873821258545, -0.5181805491447449, 0.8705087304115295, -0.4464636445045471, -0.2912868857383728, -1.2723021507263184], [-0.2925495207309723, 0.28198665380477905, -0.185785174369812, 0.4355606138706207, -0.42012694478034973, 0.6290035247802734, 0.03340456634759903, -0.22129349410533905, 0.7542555928230286, -0.017178216949105263, 0.9926217198371887, -0.51651930809021, 0.10547182708978653, -0.015003746375441551, -0.0024475750979036093, 0.08183304965496063, 0.3849199712276459, -1.2328394651412964, -0.4133669137954712, -0.1110043004155159, -0.8757451176643372, -0.6084216237068176, -0.2961527407169342, -0.015526492148637772, 0.1929711401462555, -0.2465403974056244, 0.33253517746925354, -0.385494202375412, 0.23256568610668182, 0.3000093102455139, 0.1298545002937317, 0.09336894005537033, -0.57430100440979, 0.44942688941955566, 1.023832082748413, -0.26059070229530334, 0.6606867909431458, -0.1712816059589386, -1.6443485021591187, -0.3098103404045105, -0.8579006791114807, 0.4279421865940094, 0.4100666344165802, -0.08182982355356216, -0.007882237434387207, 0.12690375745296478, 0.3068810701370239, 0.5869165658950806, 0.46722209453582764, -0.30399590730667114, -0.7533681988716125, -0.09833984822034836, 0.6101203560829163, 0.36352667212486267, -0.1597617268562317, -0.4327874779701233, 0.035096343606710434, -0.911960780620575, -0.5851936340332031, 0.030149266123771667, 0.30482718348503113, -0.3414667248725891, 0.368959903717041, -0.3564414083957672], [0.19775335490703583, -0.3509358763694763, -0.5300223231315613, 0.0015298309735953808, 0.8361368179321289, -1.2018423080444336, 0.05804554745554924, -0.10023437440395355, 0.3472903072834015, -0.3856290280818939, 0.14324399828910828, -0.7628307342529297, -0.7996797561645508, -0.49656641483306885, -0.03856189176440239, -0.17994621396064758, 1.2528786659240723, 0.6122593283653259, 0.05864032730460167, -0.16350871324539185, 0.9712783098220825, -1.452128529548645, 0.10762244462966919, 0.08731283247470856, -0.960035502910614, -0.4464615285396576, -0.9320608973503113, -0.11476506292819977, -0.942785918712616, 0.1159830093383789, 0.09342055022716522, -0.3264697194099426, 0.015063300728797913, -0.7207911610603333, -1.04020357131958, -0.021033529192209244, 0.32158082723617554, 0.12786398828029633, 0.2058539241552353, -0.2497207671403885, -0.4709368348121643, 1.2295554876327515, -0.30185413360595703, 0.5516916513442993, -0.23805399239063263, -0.1540800780057907, 0.24395312368869781, 0.3827405869960785, 0.5862314701080322, 0.13424557447433472, 0.22688575088977814, 0.4276949465274811, -0.04340730234980583, 0.8532474040985107, -0.04227643087506294, -1.059786081314087, 0.3633180558681488, -0.766426682472229, -0.07124027609825134, 0.1672023981809616, 0.04191238433122635, -0.013586233370006084, 0.012731739319860935, 0.6017481684684753], [0.013198553584516048, -0.585271418094635, 0.07574097067117691, -0.2515011727809906, -0.31858915090560913, 0.2993318438529968, -0.3080449104309082, 0.5639458894729614, 0.041764698922634125, 0.977277934551239, -0.2268347442150116, 0.5547624230384827, -0.0920644998550415, 0.11797536164522171, -0.16327282786369324, 0.7155885100364685, 0.1396872103214264, -0.4399561882019043, 0.03428509458899498, -0.18065203726291656, -0.5844759941101074, 0.4201597273349762, 0.2220456302165985, 1.6318117380142212, -0.4121933579444885, 0.20568209886550903, -0.3208262026309967, -0.3238649070262909, 0.9980474710464478, 1.0098657608032227, -0.2431865632534027, 0.6025740504264832, 0.022544505074620247, -1.2921451330184937, 0.72236567735672, 0.1289549171924591, -0.32919684052467346, -0.16502664983272552, 0.5037012100219727, -0.8342856764793396, 0.17400796711444855, -0.20772498846054077, -0.1499609500169754, -0.2798674702644348, 1.0184017419815063, 0.5241515636444092, -0.5757816433906555, -0.008494502864778042, -0.45283687114715576, 0.23342478275299072, 0.44457119703292847, -0.4136296808719635, -0.13177374005317688, 0.4124349355697632, -0.6081463694572449, -0.657728910446167, -0.416341096162796, -0.5602375864982605, -0.6149734854698181, 0.3449876010417938, -0.14123301208019257, 0.6962952017784119, 0.02353742904961109, -0.22092819213867188], [0.20445814728736877, 0.34318533539772034, -0.02987789176404476, -0.5325641632080078, 0.004594981204718351, -0.05444810539484024, -0.18807531893253326, -0.3902800679206848, -0.009823361411690712, 0.06973405927419662, 0.026348741725087166, -0.3945946991443634, 0.7127946019172668, 0.535173237323761, 0.09264033287763596, -0.6064837574958801, 0.9486969113349915, -0.24263107776641846, 0.10794446617364883, 0.0056468406692147255, -0.2656240165233612, -0.5861625075340271, -0.21110016107559204, -0.16773062944412231, 0.40810301899909973, -0.313351035118103, -0.025742217898368835, -0.5750823020935059, 0.28517353534698486, -0.2995057702064514, 0.5521132946014404, 0.013912726193666458, -0.038748081773519516, 0.3246726095676422, -0.12891040742397308, -0.08313249051570892, 0.2701374590396881, -0.5144400000572205, 0.06551018357276917, -0.302016943693161, -0.3421693742275238, -0.25553056597709656, 0.3728538155555725, 0.8880620002746582, 0.054906513541936874, 0.023428019136190414, 0.1802464872598648, -0.08007873594760895, 0.9670447111129761, -0.517924427986145, -1.1106719970703125, -1.0757189989089966, -0.1876905858516693, 0.6650588512420654, -0.02288164384663105, 0.12599317729473114, 0.7812867760658264, 0.10875441879034042, -0.3437882959842682, 0.35477688908576965, -0.12083703279495239, 0.20711749792099, 0.2514870762825012, 0.2924063503742218], [0.09172415733337402, 0.7289639115333557, -0.18020951747894287, 0.6409805417060852, 0.10915245860815048, 0.4660802185535431, -0.5500127077102661, 0.24407777190208435, -0.3326784670352936, 0.05101881921291351, 0.6116707921028137, -0.9025768041610718, 0.24775072932243347, 0.06376007199287415, -0.25053492188453674, 0.06512237340211868, -0.3872464895248413, -0.6077170968055725, 0.11315954476594925, -0.6963938474655151, 0.20428262650966644, 0.016209270805120468, 0.3631620705127716, 1.02925705909729, 0.3982759118080139, -0.0007770585943944752, 0.725525438785553, -0.22373071312904358, -0.6968440413475037, 0.022489121183753014, 0.30792900919914246, 0.23981249332427979, 0.2933705747127533, -0.5771642923355103, 0.43569281697273254, -0.16739541292190552, -0.7107366323471069, -0.07507579773664474, -0.07996361702680588, -0.39565199613571167, -0.17047181725502014, 0.6453253626823425, -0.16157710552215576, -1.2580902576446533, 0.28939419984817505, 0.2649575471878052, 0.20981667935848236, 0.1932963877916336, 0.047321368008852005, 1.2771598100662231, 0.5148126482963562, -1.2395761013031006, -0.47450241446495056, 0.15959441661834717, -1.0516208410263062, -0.09058104455471039, 0.5346474647521973, -0.7197697162628174, -0.728257417678833, 0.8908541798591614, -0.816356360912323, 0.040854163467884064, 0.19772934913635254, 0.6404926180839539], [-0.7911646962165833, 0.9468892216682434, -0.6200403571128845, -0.2975119948387146, -0.10378856956958771, 0.10087696462869644, -0.2558552324771881, -0.44954732060432434, 0.031602054834365845, 0.12519438564777374, -0.19763606786727905, 0.12856100499629974, 0.36074915528297424, 0.1753130704164505, 0.4242796003818512, -0.5965569615364075, -0.15246081352233887, 0.09958956390619278, 0.030949115753173828, 0.09668171405792236, -0.028740335255861282, 0.4482863247394562, -1.2423834800720215, -0.8629158139228821, 0.30010998249053955, 0.20474550127983093, 0.4879876673221588, 0.08624564856290817, 0.3732335567474365, -0.9992409348487854, -0.0801001712679863, 0.5931646227836609, -0.007610356900840998, 0.5457637906074524, -0.4779201149940491, -0.5326904654502869, -0.16637752950191498, -0.6299338340759277, -0.5709952116012573, -0.3151586949825287, -0.3655727207660675, 0.2007698118686676, 0.5355782508850098, -0.09655522555112839, 0.19007880985736847, 0.2182251513004303, 0.35689303278923035, -0.8022433519363403, -0.2650238275527954, -0.5245920419692993, 0.3296661674976349, 0.08733721822500229, -0.5084080696105957, -0.10141153633594513, 0.26891613006591797, 0.5848239064216614, 0.21676909923553467, 0.460315078496933, 0.07319334894418716, -0.16841484606266022, 0.33805572986602783, -0.029959674924612045, 0.37339016795158386, -0.1891162246465683], [-2.2182369232177734, -0.5752273797988892, 0.14713798463344574, -0.4346742331981659, 0.9037784337997437, -0.7315673828125, 0.431608110666275, 0.18320631980895996, 0.06753978133201599, -0.38010287284851074, 0.531515896320343, 0.00473543768748641, 0.5011873841285706, -0.2462991327047348, -0.05781359598040581, -0.35782334208488464, -0.7043124437332153, -0.4851481020450592, 0.5307523608207703, 2.318880558013916, -0.5856150388717651, -0.19684764742851257, -0.033446863293647766, -0.5050881505012512, -1.335456371307373, 0.45466965436935425, -0.6180864572525024, -0.38996487855911255, -1.3184692859649658, 0.28977710008621216, -0.004417979624122381, -0.01741129904985428, -0.489262193441391, 0.8340320587158203, -0.4223562180995941, 0.32538503408432007, 0.13019892573356628, -0.04465242475271225, -0.16785003244876862, 0.19023068249225616, 0.4269232451915741, -1.9278655052185059, 0.06675563007593155, 0.48030632734298706, 0.21249833703041077, -0.5639404058456421, -0.15002131462097168, 0.15953300893306732, 0.8683359622955322, -0.37719088792800903, -0.25786107778549194, -1.7127684354782104, -0.047377150505781174, 0.18767878413200378, 0.5543139576911926, -0.13910378515720367, -0.29888272285461426, 0.6957207322120667, -0.3734053373336792, -0.31661370396614075, 1.7609857320785522, -0.5641055107116699, -0.41207265853881836, -0.6603857278823853], [-0.28543850779533386, -0.3216913938522339, 0.2726278603076935, -0.20653994381427765, -0.10688600689172745, 0.3501627743244171, 0.13446414470672607, 0.4893745183944702, 0.013551547192037106, -0.12605182826519012, 0.2503843605518341, 0.30004411935806274, 0.5166180729866028, 0.46412402391433716, 0.22887100279331207, -0.336879163980484, -0.379231333732605, -0.28139904141426086, 0.07375602424144745, 0.006019968073815107, -0.09802434593439102, -0.0037353585939854383, -0.15527154505252838, -0.3777562081813812, 0.1245427280664444, 0.12400779873132706, -0.43652474880218506, 0.6623932719230652, 0.13213108479976654, 0.9136767983436584, 0.3193347454071045, 0.08864207565784454, 0.4695005714893341, 0.01846904307603836, 0.09418650716543198, -0.12319377064704895, -0.6218060255050659, 0.6738522052764893, -0.6166600584983826, 0.012750138528645039, -0.5112044215202332, -0.13637392222881317, -1.6868693828582764, 0.28115755319595337, -0.22729244828224182, -0.536544144153595, -0.004034990444779396, 0.07031266391277313, 0.3382951319217682, 0.11785253882408142, 0.016013137996196747, -0.6587756872177124, 0.1862753927707672, 0.39474591612815857, 0.054897159337997437, 0.1497289389371872, 0.3685963749885559, -0.2016264647245407, -0.3886750340461731, -0.40034499764442444, 0.1354624330997467, 0.28311240673065186, -0.23087280988693237, 0.8284003138542175], [0.5163810849189758, 0.9261038899421692, -0.5455294847488403, 0.3043724000453949, 0.07032078504562378, 0.37986573576927185, -0.11218856275081635, -0.9281735420227051, -0.005361281335353851, 0.19372974336147308, -0.8397142291069031, -0.04880598559975624, -0.9184917211532593, -0.34804680943489075, 0.7595832347869873, -0.06588918715715408, 0.3786245286464691, 0.3212539851665497, -0.3041951358318329, -0.8761511445045471, 0.9793195128440857, -0.04356815293431282, 1.20460844039917, -1.5064358711242676, -0.7538823485374451, 0.19450727105140686, 0.6737333536148071, 0.20445604622364044, 0.01012512668967247, 0.21533340215682983, -0.28003132343292236, 0.27949774265289307, 0.9880515933036804, 2.0935049057006836, -1.028916597366333, -0.3872743844985962, 0.8062489032745361, -0.5864781737327576, 0.6236003041267395, -0.5287525653839111, -0.3369225561618805, 0.1366984248161316, 0.5826942324638367, 0.16621319949626923, -0.057668495923280716, -0.11110492050647736, 0.7306191921234131, -0.5624942779541016, 0.8365827202796936, -0.29987600445747375, 0.4253231883049011, 1.6368067264556885, -0.41864776611328125, 0.7203414440155029, 0.7610481977462769, 0.6067121028900146, 1.246806263923645, 0.6102849841117859, 0.3262009620666504, 0.5474609136581421, -1.3849300146102905, -0.1864187866449356, 0.5177857875823975, 1.6907243728637695], [0.6032351851463318, -0.23619091510772705, 0.6946322917938232, 0.06444823741912842, 0.6898434162139893, 0.20614562928676605, 0.028772223740816116, 0.4129311144351959, -0.2689804434776306, 1.002516508102417, 0.32207468152046204, 0.8231971263885498, -0.024089373648166656, 0.3777182996273041, -0.446113646030426, 0.867485761642456, 0.40963250398635864, -0.03529063239693642, -0.21937409043312073, 0.30120471119880676, 0.35858845710754395, -0.4229349195957184, 1.8210560083389282, 0.4384401738643646, -0.23854009807109833, 0.18038326501846313, -0.31976380944252014, -0.0742565169930458, -1.2361481189727783, 0.11338729411363602, -0.32201117277145386, 0.0723753273487091, -0.5789493918418884, -0.20423467457294464, -0.5483942627906799, 0.05733483284711838, 0.16400320827960968, 0.9255763292312622, 0.33828988671302795, -0.16110889613628387, -0.939089834690094, 0.7276459336280823, 0.3352917432785034, -0.39490807056427, 0.1364375799894333, -0.04316694289445877, -0.03849475830793381, 0.6218227744102478, 1.0231294631958008, 0.4067065715789795, -0.8824234008789062, 0.05975693091750145, 0.13826382160186768, 0.03759640082716942, 0.24353599548339844, -1.0407902002334595, 0.36164113879203796, -1.0789042711257935, -0.25709405541419983, 0.7865007519721985, 0.017734864726662636, 0.33244118094444275, 0.10594839602708817, 0.8129837512969971], [-0.6246412396430969, 0.19508828222751617, -0.2898592948913574, 0.584252119064331, 0.8631834387779236, 0.37916743755340576, -0.7438536882400513, -0.6042479276657104, -0.3849191665649414, 0.2795499861240387, -0.029835816472768784, 0.7579922676086426, -0.10191238671541214, -0.34490400552749634, 0.5603838562965393, 0.644957423210144, -1.9240949153900146, 0.14598751068115234, -0.863117516040802, -0.01951274275779724, 0.3737262487411499, 0.8361519575119019, -0.22366546094417572, -0.17515498399734497, 0.08937052637338638, 0.7889328598976135, -0.029319366440176964, -0.308197557926178, 0.6254717111587524, -1.0403348207473755, 0.8740137815475464, 0.8301870822906494, 0.3767920434474945, 0.16839918494224548, -0.9697084426879883, -0.7601572871208191, -0.5157219767570496, 0.2552669048309326, 0.13738137483596802, -0.47344523668289185, 0.5309520959854126, 0.47038647532463074, 0.7661114931106567, -0.7150757908821106, 0.8938670754432678, 0.7358403205871582, 0.6736059188842773, -0.8301513195037842, -0.5336677432060242, -0.047229282557964325, 1.511142611503601, -0.31913986802101135, -0.4383053183555603, -0.08158501237630844, 0.415461927652359, 0.8473566174507141, 0.469953715801239, 0.7998877167701721, -0.11314432322978973, 0.39155954122543335, -0.5432184338569641, -0.5012215375900269, 0.6259960532188416, -0.18120437860488892], [0.6980896592140198, 0.7309110760688782, -0.7550779581069946, 0.23575972020626068, 0.0841231420636177, -0.3048396706581116, -0.2981816232204437, 0.060222141444683075, 0.5265425443649292, -0.06840617209672928, -0.47968122363090515, -0.27641695737838745, 0.9162686467170715, 0.30299118161201477, -0.2927384674549103, -0.3878266513347626, 0.5572961568832397, -0.43229028582572937, -0.5358557105064392, -0.33367493748664856, 0.5018242597579956, -0.4347435235977173, 0.2750976085662842, 0.6608452796936035, -0.8871052861213684, 1.0646032094955444, -0.028863320127129555, -0.11044637858867645, 0.13540533185005188, 0.2600463926792145, -0.2546830177307129, -0.0836476981639862, 0.26407167315483093, 0.7351391315460205, -0.09771716594696045, -0.33214160799980164, -0.308366060256958, 0.7538983821868896, -0.36162668466567993, 0.025983376428484917, -0.5713624358177185, 0.6722729206085205, 0.31525978446006775, 0.10510598123073578, -0.17058460414409637, 0.0044700950384140015, 0.5754875540733337, 0.9972180724143982, 0.6849847435951233, 0.12291829288005829, 0.19615201652050018, 0.5945010185241699, -0.05641305074095726, 2.416473627090454, -0.1963411420583725, -0.6533081531524658, 0.39882850646972656, -0.817823588848114, -0.24918627738952637, 0.6368293166160583, -0.6333121061325073, -0.06992116570472717, 0.4540838897228241, 0.8766554594039917], [0.7514843940734863, 0.19458521902561188, -1.2675604820251465, 1.2152129411697388, -0.5465739369392395, 0.542458176612854, -0.8439639806747437, -0.8674197793006897, 0.28438764810562134, 0.7316458821296692, 0.3308878242969513, 0.06512279808521271, 0.04974157363176346, -0.10921955108642578, 1.0035526752471924, -0.5330073833465576, -1.418831706047058, -0.09634986519813538, 0.2897557318210602, -0.6477503776550293, 0.5054996013641357, 0.177387535572052, -1.1836265325546265, -0.7486338019371033, -0.2047543227672577, 0.4360744059085846, 1.3414558172225952, 0.22300662100315094, -0.369753360748291, 0.036528121680021286, 0.570631206035614, 0.699090838432312, 0.900921642780304, 0.214097797870636, -0.43776702880859375, -0.6876425743103027, 1.1678344011306763, -1.5502673387527466, 0.11413051933050156, -0.8650146722793579, -0.7117094993591309, 1.0709257125854492, 0.19987131655216217, 0.4724992513656616, 0.6729264259338379, 0.30567923188209534, 0.8073797821998596, -0.9278311729431152, -0.7740193009376526, 0.0873875841498375, 0.3000650405883789, 0.06603896617889404, -1.5440424680709839, 0.14781230688095093, 1.1084412336349487, 0.8109921813011169, 0.7171760201454163, 0.17129258811473846, 0.5025790929794312, 0.47952765226364136, -0.24212729930877686, -0.26874926686286926, 0.819095253944397, 0.6099560260772705], [-1.9088562726974487, -0.018300551921129227, 1.4989193677902222, -0.486796498298645, 0.35488972067832947, -0.3882308900356293, -0.2417241632938385, 0.0057935090735554695, -0.4216707944869995, 0.23950307071208954, 0.763792872428894, 0.31198590993881226, 0.2794007956981659, 2.3751895427703857, -0.3313128352165222, 0.8534045815467834, -0.4732391834259033, -0.6098706722259521, 0.041319623589515686, 1.2830535173416138, -0.11253022402524948, 1.823329210281372, -1.4656221866607666, 1.1722368001937866, 1.963722586631775, -0.20834952592849731, -0.483292818069458, -0.8553639650344849, 1.2077240943908691, 0.9813310503959656, -0.19626903533935547, 0.7867476940155029, -0.6600778102874756, -1.9471213817596436, 0.262908935546875, 0.22370773553848267, -0.40662598609924316, 0.6291348934173584, -0.7431077361106873, -0.06282366812229156, 2.9416491985321045, -2.0156702995300293, 0.22840242087841034, -0.4097568094730377, 1.3363159894943237, -0.2731505334377289, -0.10284094512462616, 0.5129075050354004, -0.2355198860168457, 0.6325982213020325, 2.665686845779419, -1.3185133934020996, 1.1460340023040771, -1.0600292682647705, -0.635210394859314, 0.21518616378307343, -2.0674326419830322, 1.4286365509033203, -1.597917079925537, -0.4522254765033722, -0.6323754191398621, 0.3842184543609619, -0.2817564010620117, -0.6278819441795349], [0.22062183916568756, -0.39185747504234314, 0.11838749051094055, -0.4149872064590454, 0.1250697523355484, 0.29745379090309143, -0.3795917332172394, -0.2540830969810486, -0.14842021465301514, 0.4122993052005768, 0.1417989432811737, 0.5507883429527283, -0.29590609669685364, -0.7374534010887146, 0.07353702187538147, 0.06833088397979736, -1.2268095016479492, 0.04933452978730202, 0.27697834372520447, 1.0343620777130127, 0.12091908603906631, 1.0195566415786743, -0.24193157255649567, 0.2986593246459961, 0.32325366139411926, -0.5998333692550659, 0.5662526488304138, -0.48799777030944824, 0.4168393909931183, 0.3866000175476074, -0.056233279407024384, 0.9260832667350769, 0.11831448972225189, -1.0200244188308716, -0.038384564220905304, 0.09689265489578247, 0.13332124054431915, -0.1415819376707077, 0.4415055513381958, -0.5147522687911987, 0.20072773098945618, 0.26402032375335693, -0.5144577026367188, 0.4174635112285614, 0.7698675990104675, -0.007686935365200043, 0.1836576908826828, 0.013312369585037231, -0.18006467819213867, 0.29969650506973267, 0.7032409310340881, 0.10439611971378326, 0.2270614057779312, -0.09563331305980682, -0.9108606576919556, -0.02601895108819008, -0.4662235677242279, -0.14927709102630615, -0.05829169973731041, -0.34609073400497437, -0.01084702555090189, 0.28938013315200806, 0.3691408634185791, -0.2780970633029938], [-0.12135766446590424, -0.4371751546859741, -0.2679242789745331, -0.1174454465508461, -0.3913586437702179, -0.0765535980463028, 0.21550524234771729, -0.09296143800020218, 0.4095209836959839, -0.05804124101996422, -0.03888412192463875, 0.3861391246318817, -0.543573260307312, -0.13497914373874664, -0.12927468121051788, -0.7154707312583923, -0.05959527939558029, -0.31558918952941895, 0.644130289554596, 0.45264485478401184, 0.03655138984322548, -0.051436249166727066, 0.2784474194049835, 0.17704208195209503, -0.04265880957245827, 0.22726798057556152, 0.14728103578090668, 0.24744737148284912, 0.13938452303409576, 0.43425238132476807, -0.32759541273117065, 0.10472048074007034, -0.20016531646251678, -0.6055707335472107, 0.191564679145813, 0.24919047951698303, -0.39902186393737793, 0.17216558754444122, -0.016044534742832184, 0.11847689747810364, 0.2336660772562027, -0.09670491516590118, -0.6992458701133728, 0.25414925813674927, -0.11839652061462402, 0.04875265806913376, -0.30895790457725525, 0.0818358063697815, 0.12738630175590515, 0.38302740454673767, 0.15764907002449036, 0.24620571732521057, -0.8210541605949402, 0.013770079240202904, -0.45419853925704956, -0.35229921340942383, -0.5826998353004456, 0.1655147671699524, -0.14812444150447845, -0.24480143189430237, 0.7392746806144714, 0.39242351055145264, -0.39014577865600586, -0.7558544874191284], [-1.0245651006698608, -0.9869030117988586, -0.05095537006855011, 0.8463401198387146, -0.3851757347583771, -0.4941047132015228, 0.15054240822792053, -0.13255774974822998, -0.6460254192352295, 0.04343488812446594, 1.019549012184143, 1.2095520496368408, -0.31150782108306885, 0.07171783596277237, -1.1020066738128662, 0.5764241218566895, -1.3355207443237305, -2.002187728881836, 0.18089799582958221, 0.664457380771637, 0.04570839926600456, 0.5622304677963257, -1.375683069229126, 0.6354836821556091, 0.026058444753289223, -0.2516334652900696, -0.033519938588142395, -0.13302111625671387, -0.5243209600448608, 0.06486153602600098, 1.9245978593826294, 0.16885972023010254, -0.9232691526412964, 0.43662935495376587, 0.38211730122566223, 0.12352633476257324, 0.20544880628585815, -0.32274436950683594, -0.7583184838294983, -0.2149650603532791, 1.204798698425293, 0.5490814447402954, -0.609359622001648, -1.9851430654525757, 0.5106601119041443, -0.5097119808197021, -0.5248662233352661, -1.0127352476119995, 0.16504982113838196, -0.19425280392169952, 1.4613025188446045, -0.8953992128372192, 1.2658758163452148, -1.85429847240448, -0.8365656137466431, -0.09560786187648773, -1.1914106607437134, 0.12541216611862183, -0.5465975999832153, -1.868520736694336, 2.6667556762695312, -1.0757516622543335, -0.01892944797873497, -1.478859543800354], [-0.3052522540092468, 0.5951976776123047, 0.26216280460357666, -0.3103163242340088, 0.06620929390192032, 1.9669358730316162, -0.7463177442550659, -0.256732314825058, 0.16215181350708008, 0.07732682675123215, -0.8224132657051086, 0.4408794343471527, -0.5072970390319824, 0.74857097864151, 1.122428297996521, 0.6783145666122437, -0.01562729850411415, -0.25995710492134094, -0.4417898654937744, -0.31127405166625977, -0.0566113255918026, 0.020263923332095146, 0.2760622799396515, 0.6965022683143616, -0.00683740945532918, -0.6508948802947998, 0.33123353123664856, -0.6331580281257629, 1.1131175756454468, -0.3698224425315857, 0.9154970049858093, 0.15145941078662872, 0.5621983408927917, 0.7814723253250122, 0.5736027956008911, -0.1502929925918579, 0.31604039669036865, -0.4063536822795868, 0.19114209711551666, 0.09855210781097412, -0.1288605034351349, -0.6999353170394897, 0.03826392814517021, 0.6378138661384583, 0.5944701433181763, 0.6711137294769287, 0.6460760235786438, 0.5298721194267273, -0.6753789186477661, 0.0945119634270668, 0.1529506891965866, -0.5891464352607727, 0.05703182891011238, -0.2651231586933136, 0.24121622741222382, 1.1098469495773315, -0.49092623591423035, 0.28492286801338196, -0.35201430320739746, 0.2866813540458679, 0.007277761586010456, 0.19177933037281036, 0.4551866352558136, 0.2982550263404846], [-1.13275945186615, 0.5138978362083435, 0.3089362680912018, 0.7494349479675293, -1.5259307622909546, -0.15316717326641083, -0.3890768587589264, -1.2274476289749146, -0.6254274249076843, 0.10560180246829987, 0.29446157813072205, -0.3329353630542755, -1.2794467210769653, 0.4369223713874817, -0.4549853801727295, -0.0018570814281702042, 0.10884600877761841, 0.9374020099639893, -0.6949747204780579, -0.46544623374938965, -0.03776548430323601, -0.19407670199871063, 0.2791147530078888, -0.05219627544283867, -0.3969379961490631, -0.22542527318000793, 0.1534695327281952, -0.22305653989315033, 0.30286070704460144, 0.35634687542915344, 0.42690595984458923, 0.4352818727493286, 0.6697879433631897, 0.5560970306396484, 0.484853059053421, -0.9981380105018616, 0.333284467458725, -0.1503898650407791, 0.7491785287857056, -0.8083003163337708, 0.874728262424469, -0.7906842231750488, 0.5909824967384338, 0.28983911871910095, 0.2800137400627136, 0.1894768923521042, 0.2925259470939636, -0.18990829586982727, -0.15082105994224548, -0.26543721556663513, 0.5723345279693604, -0.6919986605644226, 0.5675457715988159, -0.5460065007209778, 0.5953079462051392, -0.28115832805633545, 0.7644002437591553, 0.8575958609580994, 0.08207883685827255, 0.14043767750263214, -0.10069218277931213, -0.661189615726471, 0.48493507504463196, -0.11471099406480789], [-0.672772228717804, 0.2536521255970001, 0.08545851707458496, 0.15652301907539368, -0.029751909896731377, 0.28343912959098816, -0.7134376764297485, -0.20839065313339233, -0.07646141946315765, -0.5516433119773865, -0.14543680846691132, 0.7089614272117615, 0.2348347157239914, 1.403882384300232, 0.3128680884838104, -0.5101892352104187, -0.4652695655822754, 0.005400634370744228, 0.01644996739923954, 0.153556689620018, -2.0266499519348145, 0.6109586954116821, -0.049253784120082855, 0.5522664189338684, 0.08750200271606445, -1.295524001121521, 0.6031615734100342, -0.46329930424690247, 0.564603328704834, -1.9183671474456787, 0.6212906241416931, 0.41760408878326416, 0.2685045003890991, 0.7022744417190552, 0.7225641012191772, -0.2927219569683075, 0.18754997849464417, -0.5201993584632874, -0.2676445245742798, -0.06272903829813004, 0.9545372724533081, -1.1616060733795166, -0.21784992516040802, -0.3486730754375458, 0.17911866307258606, -0.010490533895790577, 0.18822351098060608, 0.6245572566986084, -0.5662309527397156, 0.01673768274486065, 0.7375332713127136, -0.5802068710327148, 0.8248682022094727, 0.47140660881996155, 0.3906676471233368, 0.8242939114570618, -1.6553672552108765, 0.33315473794937134, -0.034562136977910995, -0.5941372513771057, 0.5358725190162659, -0.21758274734020233, -0.09651578962802887, -0.34456872940063477], [0.3263916075229645, 0.24791568517684937, -0.7406763434410095, 0.8537936210632324, 0.3156668543815613, 0.9200709462165833, -0.8217061161994934, -1.096773624420166, -0.575971782207489, 0.7366292476654053, -0.09324990212917328, 0.7725643515586853, 0.5955528020858765, 0.1049712523818016, 0.440592497587204, 0.346207857131958, -1.0321722030639648, -0.5315985679626465, -0.747289776802063, -0.6461144089698792, 0.7459779977798462, 0.7563458681106567, -0.2989058792591095, -0.3787614703178406, -0.2509354054927826, 0.7541806697845459, 0.47603967785835266, -0.11673879623413086, 0.5729937553405762, -0.33674630522727966, 0.7086150646209717, 0.5534564852714539, 0.14495062828063965, 0.5096375942230225, -0.9648343920707703, -0.46729400753974915, 0.5001701712608337, -0.15354764461517334, -0.06823276728391647, -0.9522666931152344, -0.6936267614364624, 0.3088478744029999, 0.3597704768180847, -0.8192867636680603, 0.8713929057121277, 0.6154590249061584, 0.6432265639305115, -0.6831009387969971, -0.6602330803871155, -0.5970686674118042, 0.4111509323120117, -0.18896149098873138, -0.2771189510822296, 0.06701871752738953, 0.34869256615638733, 0.7536388039588928, 0.3723352551460266, 0.3960397243499756, 0.32775992155075073, 0.411586731672287, -1.0046578645706177, -0.27544623613357544, 0.8829694390296936, 0.5889092683792114], [0.6661979556083679, 0.7811141014099121, 0.3165217936038971, -0.5790794491767883, 1.1334059238433838, -0.0260772705078125, -0.40657463669776917, -0.3640015125274658, 0.09295821934938431, 0.4895269572734833, -0.15110830962657928, 0.3725503981113434, 1.4492777585983276, 0.49777892231941223, -0.1205189898610115, 0.7877816557884216, 0.19270803034305573, 0.4072616994380951, -0.38646048307418823, -1.3015457391738892, 0.4936375916004181, 0.2719598412513733, -0.4452706277370453, -0.11530111730098724, 0.46114784479141235, 0.21897606551647186, 0.16541476547718048, -0.4461529552936554, 0.328693151473999, 0.9178391098976135, 0.9000223278999329, 0.4056228697299957, 0.9736691117286682, 0.6157406568527222, -0.12049888074398041, -0.4032779932022095, -0.27805858850479126, -0.01887538656592369, -0.6794894933700562, -0.6491260528564453, -0.020202618092298508, 0.3551397919654846, 0.4169539511203766, -0.29147401452064514, 0.11881137639284134, 0.7808032631874084, 0.2129785418510437, -0.4622543454170227, -0.32947206497192383, 0.22663941979408264, -0.0055753933265805244, 0.6082857251167297, -0.16879107058048248, -0.56654292345047, 0.0644502341747284, 0.5985623598098755, 0.8499091863632202, 1.4672201871871948, -0.00032061428646557033, 0.4678959250450134, -1.4506595134735107, 0.19938525557518005, 0.5771503448486328, 1.0588788986206055], [0.5197941064834595, 1.5277360677719116, -1.0054041147232056, 0.9621133804321289, 0.750235378742218, 0.06683158129453659, -0.7636653780937195, -0.04192199558019638, -1.5204074382781982, 0.29529616236686707, -1.9717111587524414, -0.31876006722450256, 1.3194363117218018, -0.0067865075543522835, 0.5434283018112183, 0.8614330291748047, -0.37860605120658875, 0.336132675409317, -0.6388388276100159, -2.6588525772094727, 2.1956427097320557, 0.020849289372563362, 0.9594382047653198, -1.104466199874878, -1.36751389503479, 1.0446864366531372, 0.4065190553665161, 0.09353750199079514, -1.0438640117645264, -0.1063690111041069, -0.07024171203374863, 0.3016017973423004, 2.4780755043029785, 0.21985727548599243, -1.5787442922592163, -0.44563785195350647, 0.3670955300331116, -0.11029354482889175, -0.624792218208313, -0.5675875544548035, 0.39673855900764465, 0.34267354011535645, 0.16535602509975433, -0.5270833373069763, 0.23594023287296295, 0.4547499120235443, 1.2934880256652832, 0.10162165015935898, 0.7711669206619263, -0.6731582880020142, 0.40547141432762146, 0.21108485758304596, -0.18830113112926483, 0.7099740505218506, -0.602588951587677, 0.15967212617397308, 1.7645834684371948, -0.4241374731063843, -0.276915967464447, 0.4257173538208008, -1.848946452140808, 0.035849954932928085, 0.9046412110328674, 2.5564045906066895], [-1.124345064163208, -0.23678410053253174, 0.833032488822937, -0.5452740788459778, -0.6287661194801331, 0.39219334721565247, -0.27628031373023987, -0.03504274785518646, -0.14974145591259003, 0.8461322784423828, -0.7542672157287598, 0.04576072469353676, -0.8649070262908936, 0.5943580269813538, -0.37175118923187256, 0.4851838946342468, 0.7277739644050598, -0.6951252222061157, -0.010156753472983837, 0.30671632289886475, -1.1672717332839966, -0.19140005111694336, 1.4324257373809814, 0.43326354026794434, -0.9573634266853333, -0.00980335008352995, 0.2262696623802185, -0.7870213389396667, -0.5035948157310486, 0.1495838314294815, -0.016234751790761948, 0.01543080061674118, -0.05480646342039108, -0.10599889606237411, 0.32241010665893555, -0.18105265498161316, -0.2598285675048828, -0.17700685560703278, 0.9794517755508423, -0.07965526729822159, -0.12094850838184357, 0.5007691383361816, 0.15809808671474457, -0.26511985063552856, 0.22872000932693481, 0.46116307377815247, 0.22152318060398102, 0.31678876280784607, -0.10539574921131134, -0.42893365025520325, 0.21248777210712433, -0.9245078563690186, 0.014372613281011581, 0.9221644997596741, -0.08417703956365585, -0.7136059999465942, -0.16063718497753143, -0.5262858867645264, -0.49130621552467346, 0.753329336643219, 0.43662771582603455, 0.1453472226858139, 0.06964462995529175, -0.28873175382614136], [-0.10380041599273682, 0.1453632265329361, -0.6266556978225708, 0.22501054406166077, -0.3894183337688446, 0.5298781991004944, 0.46106836199760437, 0.7308601140975952, 0.41347163915634155, -0.4873458743095398, -0.25913989543914795, -0.3779258728027344, -0.11038151383399963, -0.11618845164775848, 0.4077865779399872, -0.950130045413971, 0.058306220918893814, -0.3911789357662201, 0.029329102486371994, 0.0009789613541215658, 0.3197115957736969, -0.6179074645042419, -0.24410893023014069, -0.5619056224822998, 0.09589821100234985, 0.27383020520210266, 0.326633095741272, 0.22085939347743988, 0.3876858651638031, 0.8693522810935974, -0.9673316478729248, -0.5188503861427307, 0.35024744272232056, 0.5331006646156311, 0.3445507287979126, 0.18313954770565033, -0.539755642414093, 0.2967503070831299, 0.5608001947402954, 0.27661165595054626, -0.9693179130554199, 0.2289441078901291, -0.8457163572311401, 0.5718290209770203, -0.5943108201026917, -0.31458163261413574, 0.0523892417550087, -0.1773434728384018, 0.099406898021698, -0.69990074634552, 0.4184599816799164, 0.5400899052619934, 0.06885643303394318, 0.21752046048641205, 0.8323610424995422, 0.20646533370018005, 0.6344479322433472, 0.18311770260334015, 0.2817014157772064, 0.12002793699502945, -0.17592552304267883, -0.8640638589859009, -0.16309133172035217, -0.02060176432132721], [0.32686278223991394, -0.54930579662323, 0.8279279470443726, -0.4405190944671631, -0.31742629408836365, -0.2043079286813736, 0.15068668127059937, 0.06075557321310043, 0.4229756295681, -0.26565098762512207, -0.13595053553581238, 0.1345386505126953, -1.0610591173171997, 0.14649759232997894, -0.4031306803226471, -0.669029712677002, -0.269687294960022, 0.1597062647342682, 0.552017867565155, 0.325054794549942, 0.026844454929232597, -0.2566051483154297, 0.16243508458137512, 0.044108159840106964, -0.04645804688334465, -0.10681784152984619, 0.08599571138620377, -0.4409058690071106, 0.3830140233039856, 0.3482225239276886, -0.26098790764808655, 0.01711060106754303, -0.16568835079669952, -0.3167001008987427, -0.0127472635358572, -0.1945568025112152, -0.3360971510410309, -0.09593841433525085, 0.3698728382587433, 0.17460793256759644, 0.0717400386929512, -0.5749899744987488, -0.44067656993865967, 0.7675014734268188, -0.15025077760219574, -0.16567116975784302, -0.2953343391418457, -0.6410678029060364, 0.22500598430633545, 0.30696430802345276, -0.31580018997192383, -0.13397520780563354, 0.3271198570728302, -0.08535576611757278, -0.26003575325012207, 0.4157004952430725, 0.3093856871128082, -0.14527177810668945, 0.1235295981168747, 0.15534645318984985, 0.8690910935401917, 0.3288924992084503, -0.5125921964645386, -0.4120154082775116], [0.27207157015800476, -0.17029711604118347, 0.2508853077888489, -0.7895801067352295, -0.7031457424163818, -0.15611663460731506, 0.39104127883911133, 0.10625190287828445, 0.21266072988510132, -0.45078155398368835, 0.07323194295167923, -0.21464039385318756, 0.08256994932889938, 0.21071206033229828, -0.05268988385796547, -0.8216957449913025, 0.0065213278867304325, 0.2472565770149231, 0.5905069708824158, 0.7225466370582581, -0.019833261147141457, -0.4275497794151306, 0.4437291622161865, 0.027148369699716568, -0.22852063179016113, -0.8062069416046143, -0.6627746224403381, 0.19293473660945892, -0.42345377802848816, 0.5234643220901489, -0.3175775408744812, -0.1546323299407959, 0.3077984154224396, -0.3348996937274933, 0.013457008637487888, 0.023187892511487007, -0.49578961730003357, 0.1469147503376007, -0.15530747175216675, 0.4634052515029907, 0.3191792666912079, -0.46354159712791443, -0.9775627255439758, 0.5900349617004395, -0.35506579279899597, -0.3698664903640747, -0.21470041573047638, -0.3460494875907898, 0.4463856816291809, 0.2520250380039215, -0.18362779915332794, -0.23763282597064972, 0.10592901706695557, 0.09117469936609268, 0.3264942765235901, 0.004327937960624695, 0.39582133293151855, -0.21055172383785248, -0.1939849853515625, -0.016568174585700035, 0.6696392893791199, 0.016649598255753517, -0.5581418871879578, -0.5972844958305359], [-0.11302459239959717, 0.5671651363372803, 0.1472768485546112, -0.6766372919082642, 0.28899961709976196, 0.5573539137840271, -0.24155983328819275, -0.03467225655913353, 0.000757677189540118, -0.4127858579158783, -0.5149014592170715, -0.5151869654655457, -0.5920904278755188, 1.7405263185501099, 0.16816715896129608, -1.087241768836975, -0.24726268649101257, -0.6434711217880249, 0.5238788723945618, 0.7303151488304138, -1.8311444520950317, 0.32211267948150635, -2.0924344062805176, 0.5862887501716614, 1.241121768951416, -2.095980644226074, -0.3757766783237457, 0.06698036193847656, 1.8041077852249146, -0.3418234884738922, 0.4263516664505005, 0.1301194727420807, -0.7470897436141968, 0.3208291232585907, 1.7516371011734009, 0.2445371448993683, 0.20534507930278778, -0.3765197694301605, 0.9455639719963074, 0.4824362099170685, -1.0922088623046875, -0.5866513848304749, 0.0403163768351078, 0.6401782631874084, 0.41087138652801514, 0.09275659918785095, -0.35074910521507263, -0.4087318181991577, 0.6843323707580566, -0.38653844594955444, 0.2254185527563095, -0.05094323307275772, -0.44880369305610657, 0.6191559433937073, -1.0265161991119385, 0.42824965715408325, -0.7317980527877808, 0.11708028614521027, 0.16501569747924805, -0.2272467017173767, 0.7407649755477905, 1.066259503364563, -0.4999421536922455, -1.214727759361267], [-0.36719077825546265, 0.4506528377532959, -0.026833191514015198, 0.03167057782411575, 0.14999915659427643, -0.36579376459121704, -0.4117060601711273, -1.0222570896148682, -0.5496373772621155, 0.6366894245147705, -0.14226427674293518, -0.14552946388721466, 0.3344168961048126, -0.5817392468452454, -0.04327020049095154, -0.1528337001800537, -0.6082336902618408, 0.4049431383609772, -0.42667537927627563, -0.22479452192783356, -0.5517889261245728, 1.035436749458313, -0.32514816522598267, -1.4059350490570068, -0.026362473145127296, -0.3667662739753723, 0.5553766489028931, 0.885668933391571, 0.08213900774717331, 0.15653960406780243, 0.4351205825805664, 0.9637272357940674, -0.011227142997086048, 0.6590861082077026, -1.1029397249221802, -0.6547483205795288, 0.7718954682350159, -0.7474002242088318, 0.195184126496315, -0.6081070303916931, -0.53890460729599, -0.4018701910972595, 0.043455325067043304, 0.6966038942337036, 0.6348350644111633, 0.1784803420305252, 0.567162275314331, -0.7718279957771301, -1.2279072999954224, -1.326522946357727, 0.39738404750823975, -0.8046095371246338, -0.3823017179965973, 0.023497508838772774, 0.8822559118270874, 0.6174150705337524, 0.5022814273834229, 1.1359922885894775, -0.38695988059043884, 0.3146025836467743, -0.3164915442466736, 0.42564669251441956, 0.7722079157829285, 0.35535910725593567], [-0.5172353982925415, -0.08045507967472076, -0.9974848031997681, -0.21317927539348602, 0.8118705749511719, 0.2345302551984787, -0.27024832367897034, -0.11768411844968796, 0.0988599956035614, 0.30139803886413574, -0.33319082856178284, -0.48949629068374634, 0.007796456106007099, -1.0641167163848877, 0.29521673917770386, -0.8807844519615173, 1.160814881324768, 0.24819526076316833, 0.05475178360939026, 0.03932641074061394, -1.1893584728240967, -0.26923659443855286, -0.3538772165775299, -0.8968766331672668, 0.6092259883880615, 0.4183303415775299, 0.3744370639324188, 0.1148642897605896, 1.1845632791519165, 0.4041181206703186, -1.3580617904663086, 0.35734495520591736, 0.9776548147201538, 0.08834987878799438, 0.4573069214820862, -0.23448705673217773, -0.12780988216400146, -0.5246524810791016, -0.0927748903632164, -0.6004815697669983, -0.8595581650733948, 0.6400501728057861, 0.5283371806144714, 0.8807913064956665, -0.36480712890625, 0.4102639853954315, 0.39710745215415955, -0.46780818700790405, -0.3895608186721802, 0.7392356395721436, 0.07947500050067902, -0.9118697047233582, 0.1381785124540329, 0.13729888200759888, 0.022212598472833633, 0.26161810755729675, 0.31095391511917114, 0.387191504240036, 0.405498743057251, 0.39357662200927734, -0.30999302864074707, -0.2973293364048004, 0.19402755796909332, 0.23193350434303284], [-0.38775917887687683, -0.3231956362724304, 0.9807496070861816, -0.167028546333313, 0.02115161158144474, -0.7215274572372437, -0.11766542494297028, -0.4701082408428192, -0.1990705281496048, 0.6090031266212463, -0.09720326960086823, 1.1546809673309326, -1.9584956169128418, 0.15115316212177277, -1.3950386047363281, -0.11437946557998657, 0.924584686756134, -1.4628740549087524, 0.5189628005027771, 0.6569783687591553, 0.2551191747188568, -0.12271291017532349, 0.27950724959373474, -0.057570941746234894, -0.37631919980049133, -0.13203784823417664, -0.28105634450912476, 0.6254166960716248, -0.30891290307044983, 0.7050350308418274, -0.1696372926235199, 0.1015012264251709, 0.12313578277826309, -0.1625320464372635, 0.7785676717758179, 0.22940649092197418, 0.37157654762268066, 0.1747572422027588, 1.5279778242111206, -0.17217716574668884, 0.8419535160064697, -0.4487939774990082, -0.18677183985710144, -0.2875928580760956, -0.015620977617800236, 0.06284462660551071, -0.2276981770992279, 0.04122718423604965, -0.04449005052447319, 0.496614933013916, 1.1053037643432617, 0.039540719240903854, -0.5401877164840698, -0.5024181604385376, 0.6687581539154053, 0.14944900572299957, -0.49180868268013, 0.1864272952079773, -1.4146608114242554, 0.12098875641822815, 0.7052144408226013, -0.2196701169013977, -0.005410630721598864, -0.2517620921134949], [0.017586711794137955, 0.09286912530660629, -0.13715313374996185, 0.06985005736351013, -0.5641661286354065, 0.46526286005973816, 0.037706948816776276, -1.0591888427734375, -0.16820275783538818, 0.30096980929374695, -0.010754741728305817, 0.6634141206741333, 0.2655476927757263, 0.60321444272995, -0.15152202546596527, 0.5538318753242493, -1.1003566980361938, 0.7318099141120911, -0.6549795269966125, -0.4160903990268707, 0.5192278027534485, 0.438070148229599, -0.1964760571718216, -0.35570046305656433, 0.26285335421562195, -0.2543944716453552, 0.70588219165802, 0.22538705170154572, -0.2239011824131012, -0.06590638309717178, 0.2454899549484253, 0.32475149631500244, 0.5603575706481934, 0.268876850605011, 0.36173003911972046, -0.4596734344959259, 0.5478301048278809, -0.26477664709091187, 0.8998674154281616, -0.2820102274417877, -0.1710132211446762, -1.0655992031097412, 0.4130055904388428, 0.12174072861671448, 0.4557728171348572, 0.6494466662406921, 0.1814386248588562, -1.0857142210006714, -0.5118933916091919, 0.23652851581573486, 0.13562044501304626, 0.5013484954833984, 0.19968311488628387, -0.915838897228241, 0.5537315011024475, 0.8385939002037048, -0.5434739589691162, 0.4520162343978882, 0.9328445792198181, -0.22780069708824158, -0.05554448813199997, -0.0710446909070015, 0.19812394678592682, -0.23413319885730743], [-0.31779465079307556, 0.3444683253765106, 0.7871633768081665, -0.2652660310268402, -0.54863041639328, 0.917996883392334, -0.9209036231040955, -0.5958728194236755, 0.6009535789489746, -0.24752295017242432, -1.06156587600708, -0.5457213521003723, -0.2632206380367279, 0.7116574048995972, 1.2822868824005127, 0.4062131643295288, -0.8507639765739441, -0.20989783108234406, -0.45263156294822693, -1.2816301584243774, 0.1584186553955078, 0.5383893847465515, 0.13768672943115234, 0.06286996603012085, -0.7079614996910095, -0.3731464743614197, 0.8012986183166504, -1.020531415939331, 0.7516035437583923, 0.35082143545150757, -0.17939956486225128, 0.25230348110198975, 1.0976234674453735, 0.11616463214159012, 0.013111913576722145, -0.29690372943878174, 0.4205681383609772, -0.5972022414207458, 0.12120736390352249, -0.13396675884723663, 0.3051706552505493, 0.46832048892974854, 1.2094099521636963, 0.19266442954540253, 0.5272114276885986, 0.4803709387779236, 0.6032297015190125, -0.41969162225723267, 0.6519004702568054, -0.5791562795639038, 0.8973315358161926, -2.137387275695801, -0.3857138454914093, -0.23223967850208282, -0.3053266406059265, 0.6127479076385498, 0.8150826096534729, 0.7396337985992432, -0.2927975356578827, 1.0045993328094482, -0.5279427766799927, 0.7505925893783569, 0.4629334807395935, 0.637701690196991], [0.44174787402153015, 1.1306469440460205, -0.6478681564331055, 1.0355945825576782, 0.6039643883705139, 0.8623934984207153, -1.1174510717391968, -0.6037818789482117, -0.6375740766525269, 0.5983587503433228, -0.13574010133743286, 0.283435195684433, 0.8825514912605286, -0.05140485614538193, 0.4873703122138977, 0.4145374000072479, -0.7097460627555847, -0.4018833041191101, -0.66573166847229, -0.4198484718799591, 0.4025113880634308, 1.3038990497589111, -0.4435577988624573, -0.47034546732902527, 0.17041797935962677, 0.2865268588066101, 0.36017054319381714, -0.3439027667045593, 1.0307291746139526, -0.20484019815921783, 1.0241020917892456, 0.8441181778907776, 0.26095810532569885, 0.39584070444107056, -0.45789995789527893, -0.6481762528419495, -0.017222275957465172, 0.048183247447013855, -0.5372615456581116, -0.8173694014549255, -0.7190711498260498, 1.3338042497634888, 0.627651035785675, -1.0122172832489014, 0.761689305305481, 1.0413411855697632, 0.6416270732879639, -0.6123685836791992, -0.8638062477111816, -0.7806980013847351, 0.6102136373519897, 0.5559558272361755, -0.5174772143363953, 0.17781060934066772, 0.10603073984384537, 0.3469495475292206, -0.00012516073184087873, 0.35610800981521606, 0.566476047039032, 0.5893985629081726, -0.4197673499584198, 0.11696159094572067, 0.9122458696365356, 0.19495712220668793], [0.5607110857963562, -0.21109677851200104, 0.7603967785835266, 0.0019299422856420279, 0.7148218154907227, -0.2315795123577118, -0.09627237170934677, -0.3035418689250946, 0.10404946655035019, 0.4943695366382599, 0.20728933811187744, 0.7283281683921814, -0.6033554077148438, -0.8264230489730835, -0.4237805902957916, -0.3851524889469147, 0.4553035795688629, 0.827625572681427, -0.028799384832382202, -0.7113367915153503, 0.5258293747901917, -0.4697043001651764, -0.00031329310149885714, -0.006773066706955433, 0.6421281099319458, -0.0679859071969986, 0.016878679394721985, 0.5261961817741394, -0.8249418139457703, 0.24300342798233032, 0.7099736928939819, 0.10582814365625381, 0.10444489121437073, -0.16609326004981995, -0.05503259226679802, -0.12149729579687119, 0.7665427327156067, 0.008439713157713413, 0.018378494307398796, -0.24854286015033722, 0.7660114169120789, 0.29735395312309265, 0.00806055311113596, -0.49269944429397583, -0.18058548867702484, -0.1449638158082962, 0.18444061279296875, 0.10674179345369339, 0.2458261102437973, -0.1247212290763855, 1.0084316730499268, 0.9643592238426208, 0.2722758650779724, 0.27146145701408386, -0.576796293258667, -0.40301191806793213, -0.08098548650741577, -0.6566995978355408, 0.07651200145483017, -0.11334701627492905, -0.26324599981307983, -0.724004864692688, -0.18411141633987427, 0.8364872336387634], [-0.1777580827474594, 0.956972599029541, -0.577211856842041, 0.3358127176761627, 0.6559973955154419, 1.0568735599517822, -0.6667737364768982, -0.5355989933013916, -0.9899140000343323, 0.7057952284812927, -0.14044497907161713, 0.41474324464797974, 0.7332190871238708, 0.403759241104126, 0.3886605501174927, 0.7013307809829712, -0.6891040802001953, -0.20024916529655457, -0.7764126658439636, -0.9959670901298523, 0.5921787023544312, 0.7073601484298706, -0.6367326974868774, -0.5675821900367737, 0.4793166220188141, 0.9524737000465393, 0.7091904878616333, -0.29257601499557495, 0.5365139245986938, 0.4134252667427063, 0.42701399326324463, 0.5283863544464111, 0.9725469350814819, 1.1114863157272339, -0.3875736594200134, -0.5014253258705139, 0.4315855801105499, -0.29573339223861694, -1.2102288007736206, -0.9994154572486877, -0.521416425704956, 0.9123996496200562, 0.8269661068916321, -0.6707401275634766, 0.4715048670768738, 0.9694622755050659, 0.6054377555847168, -0.21950209140777588, -0.9263591766357422, -0.11824165284633636, -0.041014812886714935, 0.683283805847168, -0.5813183784484863, -0.459687203168869, 0.45307978987693787, 0.9635370373725891, 0.13359414041042328, 0.6291192770004272, 0.1909409612417221, 0.6154345870018005, -0.842159628868103, -0.24872806668281555, 0.9729776382446289, 0.8654758334159851], [0.04189061000943184, -0.9229218363761902, 0.8602464199066162, -0.4703349173069, 0.23785598576068878, 0.3809658885002136, 0.3773902952671051, -0.011966713704168797, 0.287579745054245, -0.5249713659286499, -0.11321965605020523, -0.4952700138092041, -0.536623477935791, 0.15357795357704163, -0.6864058971405029, -0.6021185517311096, -0.07162359356880188, -0.15056490898132324, 0.41083425283432007, 0.7320421934127808, 0.11115860193967819, -0.45396459102630615, 0.6136900186538696, 0.6939507722854614, -0.319860577583313, -0.5026293396949768, -0.3002246916294098, -0.1239258423447609, -0.12349580973386765, 1.125802755355835, 0.07705114781856537, -0.18921679258346558, -0.6141029596328735, -0.14805719256401062, -0.18119212985038757, 0.19675548374652863, 0.7214320302009583, -0.12300090491771698, -0.28552567958831787, 0.08065391331911087, 0.18830829858779907, 0.32687315344810486, 0.3721924424171448, 0.4144535958766937, -0.34989839792251587, -0.36045169830322266, -0.19742809236049652, -0.23839639127254486, 0.9081805944442749, 0.7121359705924988, -0.09360869228839874, 0.00847101490944624, -0.08482025563716888, 0.19836612045764923, 0.15029555559158325, -0.06782513111829758, -0.44911453127861023, -0.16949447989463806, -0.4480644166469574, 0.25448331236839294, 0.7287546992301941, 0.4690791964530945, -0.29132723808288574, -0.7862597107887268], [-0.9033777713775635, 0.11940887570381165, 0.2154606431722641, 0.43606746196746826, 0.5486778616905212, 1.1680384874343872, -0.6216021776199341, -0.6960840821266174, 0.13786251842975616, 0.2331557422876358, -0.08877065777778625, -0.6562145352363586, -0.0060218279249966145, 1.1767703294754028, 1.314324140548706, 0.23785749077796936, -0.5133321285247803, -0.6823164224624634, -0.2836177945137024, 0.4415139853954315, -0.8684916496276855, 1.1027817726135254, -0.7721788287162781, -0.41298404335975647, 0.26580989360809326, -0.1933581680059433, 0.9190976023674011, -0.4249430298805237, 0.12536324560642242, 0.5227285027503967, 0.8787703514099121, 1.0768054723739624, 0.12389028072357178, -0.05162738636136055, 0.7168638110160828, -0.6530055999755859, 0.15215933322906494, -0.7370994687080383, -0.2905169725418091, -0.7850185632705688, -0.8051389455795288, -0.513984203338623, 0.06378619372844696, 0.5290582776069641, 1.0087896585464478, 0.2089458554983139, 0.1729985773563385, -0.12692885100841522, 0.17221184074878693, -0.4962044954299927, 0.6009236574172974, -1.3450578451156616, 0.05327122285962105, 0.5887662172317505, 0.41150081157684326, 0.6390716433525085, 0.02760203368961811, 0.25189846754074097, -0.5658945441246033, 0.005613091867417097, 0.12115924060344696, 0.05960487946867943, 0.4384419918060303, -0.7277989387512207], [1.3252586126327515, 0.12931086122989655, -0.26909971237182617, -0.3488088548183441, -0.0802871584892273, -0.38552969694137573, -0.1617971658706665, -0.00152840546797961, -0.7521532773971558, 0.2038348764181137, -0.0593695305287838, -0.45361679792404175, -0.6325931549072266, -1.3079332113265991, 0.23075971007347107, 0.16847093403339386, 0.3146577477455139, 0.8673338294029236, -0.6128231287002563, -1.5995301008224487, 1.8026940822601318, -0.5686572790145874, 0.35661301016807556, -0.579131007194519, -0.754249095916748, -0.2743420898914337, -0.23414309322834015, 0.7993943095207214, 0.06445113569498062, -0.07056871056556702, -0.17494940757751465, -0.2464148849248886, 0.3676063120365143, 1.351235032081604, -1.1813856363296509, -0.3762161433696747, -0.04804500564932823, 0.7141053676605225, -0.5787467360496521, -0.3592006266117096, 0.7343999147415161, 0.7016072273254395, 0.2682008147239685, -0.2908880412578583, -0.47019726037979126, 1.1416397094726562, 0.4194799065589905, 0.013774308376014233, -0.14322224259376526, 0.5194405317306519, 0.6164296865463257, 0.9036589860916138, 0.20503459870815277, -0.34768375754356384, -0.2923120856285095, -0.30660292506217957, -0.13836923241615295, -0.05715778470039368, 0.670957088470459, 0.23580603301525116, -1.1991788148880005, -0.6498973965644836, 0.3894692063331604, 0.5537601113319397], [0.020559819415211678, -0.9228220582008362, -0.23304106295108795, 0.41445067524909973, -1.2971009016036987, 0.41501519083976746, 0.3001907765865326, 0.2959713041782379, -0.21460570394992828, -0.06869307905435562, -0.8770684003829956, -0.2687142491340637, -1.2922264337539673, -0.2822423577308655, 0.9744477272033691, 0.3236162066459656, -0.27685660123825073, -0.38831737637519836, -0.09177154302597046, -1.322605013847351, 1.0570310354232788, -0.2838502824306488, 2.432870864868164, -0.02323315106332302, -0.7901182770729065, 1.15635347366333, -0.21242359280586243, -0.5741025805473328, 0.147526815533638, 0.6811755895614624, 0.8007187843322754, -0.23870818316936493, 0.5384305715560913, 0.8666303753852844, -0.24380677938461304, -0.10787928104400635, 0.6999750137329102, 0.2161092758178711, 0.6559788584709167, 0.2431713342666626, 0.12277556210756302, 0.0915418490767479, -0.9442043304443359, 0.2745279371738434, -0.18483565747737885, -0.08812126517295837, -0.17615221440792084, -0.5212002992630005, 1.1277165412902832, -0.2684687376022339, -0.02869454026222229, -0.06234024092555046, 0.32789146900177, 0.6740018129348755, -0.5501626133918762, -0.2047232985496521, 0.5064669847488403, -0.10170388966798782, -0.5201157331466675, -0.1256595253944397, -0.6751563549041748, 0.24286025762557983, -0.3018933832645416, 0.6883846521377563], [-0.22024071216583252, -0.6241693496704102, -0.8414844274520874, 0.5871320962905884, 0.02723524533212185, -0.4373897910118103, 0.26414409279823303, -0.40548276901245117, -0.8911532163619995, 0.09654614329338074, 2.802842378616333, 0.7354781627655029, 0.5836474299430847, 0.14745765924453735, -0.46821117401123047, -1.7370060682296753, -0.5853393077850342, -0.32084113359451294, 0.09610293060541153, 0.4085713028907776, -0.40396443009376526, 0.27735036611557007, -1.3958665132522583, -0.13912133872509003, 2.0590853691101074, -0.162612184882164, -0.2827099561691284, 1.737848162651062, -0.9358709454536438, 1.313736915588379, -0.36390912532806396, 0.17986388504505157, -0.152239590883255, 1.0648118257522583, -0.2568897008895874, -0.06575343757867813, 0.596107542514801, -0.4575191140174866, -1.4257158041000366, -0.26826730370521545, -0.6488769054412842, -0.4770753085613251, -0.2798486053943634, -0.48199713230133057, 0.2304161638021469, -1.1773525476455688, 0.016388095915317535, -1.2520909309387207, 0.3968043029308319, -0.21074169874191284, -0.37593770027160645, 0.33406317234039307, -0.1749686449766159, -2.0791327953338623, 0.955510139465332, 0.8518654704093933, 0.5274503827095032, 0.8974558711051941, 1.8776476383209229, -3.528406858444214, 1.0703202486038208, -0.49999767541885376, -0.07420952618122101, -1.2975845336914062], [0.4693000316619873, 0.015676207840442657, -0.4155431389808655, 0.07303159683942795, -0.0885978490114212, -0.42036134004592896, 0.17960019409656525, 0.18986496329307556, -0.052148208022117615, -0.1282086819410324, 0.006530575919896364, 0.10283345729112625, 0.20844605565071106, 0.08163465559482574, -0.06353209912776947, -0.6329503655433655, -0.11404747515916824, 0.9515059590339661, 0.06482788920402527, 0.13539867103099823, 0.7286199927330017, 0.09272534400224686, -0.2835400402545929, -0.41551631689071655, -0.2588350474834442, 0.07784722000360489, -0.13642068207263947, 0.6007787585258484, 0.09621287882328033, 0.9539660811424255, -0.313925176858902, -0.0666099414229393, -0.2749181091785431, -0.1333547979593277, 0.44178587198257446, 0.038093626499176025, -0.8065734505653381, 0.05564330890774727, 0.9269904494285583, 0.17316870391368866, 0.2951839864253998, -0.2918343245983124, -0.7374833226203918, 0.025500688701868057, 0.028977423906326294, -0.06891079246997833, 0.004247723612934351, 0.31829017400741577, 0.23267753422260284, -0.3078100085258484, 0.3784470558166504, 0.12004069238901138, 0.0767192468047142, 0.04554243013262749, 0.574234127998352, -0.225691556930542, -0.4018552899360657, 0.4977370798587799, 0.030121205374598503, 0.4464954137802124, -0.6163293123245239, -0.025966769084334373, -0.07176095992326736, -0.038438115268945694], [-0.17078733444213867, 0.047839950770139694, -0.6173859238624573, 0.6474559307098389, -0.17568731307983398, 0.6936187148094177, -0.8290513753890991, -0.22320227324962616, 0.04683385789394379, 0.35423609614372253, -0.12490180134773254, -0.6561524271965027, 0.25260865688323975, 0.3867439031600952, -0.2570163607597351, 0.3971773684024811, 0.023287158459424973, 0.12276085466146469, 0.20677007734775543, 0.8886699676513672, 0.026819752529263496, -0.0014399569481611252, -0.5746982097625732, 0.6765946745872498, -0.20927053689956665, -0.6278220415115356, 0.5886528491973877, -0.30380702018737793, 0.8058738112449646, -0.8186483979225159, -0.09006007760763168, 0.3817095458507538, -0.3314550220966339, 0.2722148895263672, 0.5347954630851746, -0.2710287272930145, -0.02004574052989483, -0.8627909421920776, 0.03865714743733406, -0.7042419910430908, 0.11602015048265457, 0.17867501080036163, 0.04474278911948204, -0.35450828075408936, 0.4806806147098541, 0.14008235931396484, 0.12136776745319366, -0.18335743248462677, -0.25893256068229675, 0.28219419717788696, 0.270525723695755, -0.2930987775325775, -0.3078998923301697, -0.5332938432693481, -0.5026456117630005, 0.8358297944068909, -0.5901111960411072, 0.5995622277259827, -0.6631467938423157, 0.2385646551847458, 0.8354648351669312, 0.5180094242095947, 0.1530134677886963, -1.0343105792999268], [0.11462831497192383, -0.9527779221534729, 0.33389711380004883, 0.26305481791496277, 0.6723653078079224, -0.45649436116218567, -0.22168713808059692, 0.18159633874893188, -0.40730762481689453, 0.6686279773712158, -0.45888006687164307, 0.8480333089828491, -0.5109402537345886, -0.9289949536323547, -0.47610652446746826, -0.25771480798721313, -0.675041139125824, -0.07214362174272537, -0.6051028370857239, -0.20998376607894897, 1.6164789199829102, -0.3813299536705017, 1.6065253019332886, 0.11104075610637665, -0.40887248516082764, 0.12470855563879013, -0.7302958965301514, -0.14165186882019043, -0.6961677670478821, 0.3259950876235962, 0.3520980179309845, -0.14328327775001526, -0.47810953855514526, 0.041909828782081604, -0.14692483842372894, -0.3335917294025421, -0.6974627375602722, 0.8894425630569458, -1.2839769124984741, -0.44182875752449036, 0.3068106770515442, -0.10431031137704849, -0.40538716316223145, -1.300289273262024, 0.12760789692401886, 0.04747047647833824, 0.7269793152809143, 0.23174124956130981, -0.10029295086860657, -0.17150816321372986, -0.7360231280326843, 0.11597858369350433, 0.33821606636047363, 0.28402864933013916, -0.47196251153945923, -0.615614116191864, 0.3945937156677246, -0.6720672249794006, 0.2248988002538681, 0.3836873471736908, 0.6307046413421631, -0.30792346596717834, 0.47445210814476013, 0.33161094784736633], [-0.17766083776950836, 0.18635979294776917, 0.01370176486670971, -0.5544825792312622, 0.3002721071243286, -0.04439081996679306, 0.06387495249509811, -0.6576104164123535, 0.1968916654586792, -0.2434104084968567, 0.15474456548690796, -0.3312092125415802, 0.08919057250022888, -0.26093900203704834, 0.3667813241481781, -0.7216801047325134, 0.15592209994792938, -0.22166253626346588, 0.3477063477039337, 0.25014814734458923, -0.5671437382698059, -0.534702718257904, 0.04065103456377983, -0.36815622448921204, 0.1964952051639557, -0.2873360812664032, 0.017230700701475143, 0.15303196012973785, 0.3837328553199768, 0.24154971539974213, 0.4793585538864136, 0.1276620775461197, 0.6215264201164246, 0.048408765345811844, 0.07684637606143951, -0.12706245481967926, -0.14978109300136566, -0.24788382649421692, -0.9892532825469971, 0.09903870522975922, 0.17962011694908142, -0.0576171875, -0.0526592880487442, 0.9821794629096985, -0.16778895258903503, -0.17658831179141998, 0.46224135160446167, -0.3756251335144043, 0.46374571323394775, 0.012155231088399887, -0.09266507625579834, 0.29892611503601074, -0.07801567763090134, 0.3914782404899597, -0.00298503739759326, 0.5437284111976624, 0.7543441653251648, -0.26438599824905396, -0.06479565054178238, -0.10132742673158646, 0.917030930519104, -0.24484752118587494, 0.04619588702917099, -0.007494569756090641], [-0.05245097726583481, 0.6999919414520264, -0.948097825050354, 1.2590272426605225, -0.11187994480133057, 0.5599408745765686, -0.4160349369049072, -0.9860186576843262, -0.5504146218299866, 0.7872615456581116, 0.32050058245658875, 0.07469215244054794, -0.4932749271392822, -0.8788493275642395, 0.02752871997654438, 0.02334556356072426, -1.094197154045105, -0.1763637661933899, 0.04926876351237297, -0.35441938042640686, 0.5406299829483032, 0.6046590805053711, -0.37958264350891113, -0.340101420879364, 0.14112171530723572, -0.19098305702209473, 1.720988154411316, -0.5880115628242493, 0.6592603921890259, 0.5010242462158203, 0.5144084692001343, 0.6653403043746948, 1.224915862083435, 0.9673001170158386, -0.7552095651626587, -0.33968445658683777, 0.8303731083869934, -1.0388494729995728, 0.22969599068164825, -0.8454658389091492, -0.16950304806232452, 0.5726459622383118, 1.2028034925460815, -0.725616991519928, 0.40466296672821045, 0.36015138030052185, 0.5230653285980225, -0.13331671059131622, -0.44624167680740356, -0.034311167895793915, 0.22086000442504883, -0.02471563033759594, -0.760846734046936, -0.9462335109710693, -0.23164448142051697, 0.7576330304145813, 0.47079864144325256, -0.6349849700927734, 0.3616918623447418, 0.08358713239431381, 0.7425026893615723, 0.1010890081524849, 0.9934331774711609, -0.4939631521701813], [-0.3150506615638733, 0.09732255339622498, 0.5592990517616272, -0.4935262203216553, 0.43651652336120605, 0.3663886487483978, 0.17315511405467987, 0.5563107132911682, 0.4563056230545044, 0.11714955419301987, -0.11527927964925766, 0.2899587154388428, -0.7553025484085083, -0.3697877824306488, -0.22982807457447052, -0.15185751020908356, 0.2354738861322403, -0.2834506630897522, -0.12371762096881866, 0.4036775529384613, -0.781231164932251, -0.08372238278388977, -0.08760759234428406, 0.15490181744098663, -0.3205253779888153, -0.05050187557935715, -0.28363415598869324, -0.3370549976825714, 0.4092288017272949, 0.9750399589538574, -0.17090053856372833, 0.018078049644827843, -0.7807143926620483, -0.159464031457901, -0.2909988760948181, -0.22283750772476196, -0.6871641874313354, 0.666763961315155, 0.18957895040512085, 0.23451219499111176, -0.37721627950668335, 0.09199561178684235, -0.051789291203022, -0.43527695536613464, -0.1254740059375763, -0.04822278767824173, -0.046574968844652176, -0.03426263481378555, -0.035107243806123734, -0.04014141485095024, -0.29459547996520996, 0.22197718918323517, -0.09057606756687164, 0.18385463953018188, -0.7451061010360718, -0.16282851994037628, 0.16013382375240326, 0.4528253376483917, -0.27510660886764526, 0.6210793852806091, 0.6022587418556213, 0.4636230170726776, 0.13207700848579407, -0.42365172505378723], [0.496707558631897, 0.8970897197723389, 0.3029925525188446, 0.5673809051513672, -1.0478359460830688, 0.511529266834259, -0.02636118419468403, 0.1797429472208023, 0.37934204936027527, -0.4975133538246155, 0.08599089831113815, -0.2512094974517822, -0.3062807023525238, -0.43967175483703613, -0.07904782146215439, -0.5904541015625, -0.2623465061187744, 0.7719644904136658, 0.02383134514093399, -0.6471666693687439, 0.2812264561653137, 0.1278042048215866, -0.45505836606025696, 0.924513041973114, 0.3950372040271759, -0.20166057348251343, -0.3978494107723236, 0.011172880418598652, 0.13777340948581696, 0.0914391353726387, 0.27873554825782776, 0.21692506968975067, 0.014203080907464027, -0.018849991261959076, -0.2513149082660675, 0.1682322472333908, -1.0067628622055054, -0.19106002151966095, -0.31580281257629395, 0.20806381106376648, -0.22266031801700592, -0.02578161656856537, -0.5334850549697876, -0.13663770258426666, 0.1042354553937912, -0.1830938160419464, -0.2738493084907532, -0.3426929712295532, 0.11214852333068848, -0.09747543931007385, -0.5788664817810059, -0.7649778127670288, 0.5188072323799133, -0.042758189141750336, 0.26772376894950867, -0.1939602941274643, -0.06446670740842819, 0.08648501336574554, -0.5396846532821655, -0.20652878284454346, 0.038994643837213516, -0.10084685683250427, -0.19396047294139862, -0.08739147335290909], [-0.8088559508323669, 0.16787408292293549, -0.14638881385326385, 1.1974661350250244, -0.40180471539497375, 0.6828832626342773, -0.03041975013911724, 0.12070278823375702, -0.5759590864181519, 0.13412009179592133, -0.5344201326370239, 0.7087118029594421, -0.20788384974002838, 0.7426046133041382, 0.07172004878520966, -0.22004586458206177, -0.6665646433830261, -0.8421510457992554, -0.043493881821632385, 0.6209540367126465, 0.5300187468528748, 0.3809462785720825, -0.13231852650642395, 0.24641527235507965, -1.2407833337783813, 0.5220532417297363, -0.028734788298606873, 0.3243281841278076, 0.5005260705947876, 0.07525938749313354, 0.3844209909439087, 0.3989647626876831, 0.11178679019212723, 0.4231983721256256, -0.8810880184173584, -0.16671429574489594, -0.027526112273335457, 0.11832229793071747, 0.3596302270889282, -0.16487064957618713, 0.12789469957351685, -1.1697169542312622, -0.7008183598518372, 0.8874194025993347, 0.4072563052177429, -0.0609625019133091, 0.5034329891204834, -0.6631597280502319, 0.22776110470294952, -0.020632034167647362, 0.1523004025220871, -1.9265570640563965, 0.18137452006340027, -0.18015213310718536, 0.525758683681488, 0.07362997531890869, 0.39240673184394836, 0.24811449646949768, 0.678530216217041, -0.13189373910427094, 0.44319236278533936, -0.6610069870948792, 0.10330294072628021, -0.41342464089393616], [0.44432297348976135, -0.2033173143863678, -0.9204962253570557, 0.5382806658744812, -0.41863298416137695, 0.018428292125463486, -0.534906804561615, 0.012534753419458866, -0.7363160848617554, -0.3110877275466919, -0.012406665831804276, 0.7180513739585876, -0.021723758429288864, -0.14153800904750824, -0.3242596387863159, -1.1876784563064575, -0.8478937149047852, 0.1889459788799286, 0.4782085120677948, -0.07721692323684692, -0.015261482447385788, 0.42383044958114624, -0.9018959403038025, 0.3102101683616638, -0.6206446290016174, -0.28363239765167236, 0.10997037589550018, -0.042337168008089066, -0.3443371057510376, 0.23000779747962952, -0.8785813450813293, 0.46815988421440125, 0.41508448123931885, -0.7282585501670837, -0.14958319067955017, -0.28283119201660156, -0.44857850670814514, -0.3842090666294098, 0.56916743516922, -0.266531378030777, 0.2439897358417511, 0.23295770585536957, -0.3988748788833618, -0.6359692811965942, 0.11573328822851181, -0.1962108016014099, 0.18606619536876678, 0.11214043200016022, -0.22953012585639954, 0.12700018286705017, 1.0255330801010132, 0.19233828783035278, -0.5700609683990479, 0.20213302969932556, -1.0358712673187256, 0.08319288492202759, 0.6420416831970215, -0.17000465095043182, -0.29742589592933655, 0.11273312568664551, 0.21083086729049683, 0.3978240489959717, 0.14812780916690826, -0.30221810936927795], [2.271116256713867, 1.1766929626464844, 0.08986882865428925, 0.31063440442085266, 0.3657241463661194, -1.886802077293396, 0.8245604038238525, -0.24194109439849854, 0.7394525408744812, -0.5793873071670532, 2.1185765266418457, -0.02358451671898365, -0.000981388264335692, -3.4392805099487305, 0.2573658227920532, -1.2585912942886353, 0.582145094871521, 4.602612495422363, 0.07811741530895233, -0.8630370497703552, 0.05881178751587868, -1.4381154775619507, 0.595595121383667, -1.907814621925354, 0.6487329006195068, 0.5140902996063232, -0.10181302577257156, 3.210794687271118, -0.2847210466861725, -0.3974355161190033, -1.342315912246704, -0.4397284984588623, 0.4200039505958557, 1.8087705373764038, -1.845391035079956, 0.08347076922655106, 0.16100943088531494, -0.017274774610996246, -1.1419475078582764, 0.18671493232250214, 0.9429026246070862, -2.153228521347046, 0.3706580102443695, -0.087530218064785, -0.7987255454063416, -0.2717543840408325, 0.2597324252128601, -0.35281699895858765, 0.4451752305030823, -1.0019264221191406, 0.3089609146118164, 3.5058071613311768, 0.035705603659152985, -1.250572681427002, 0.32032084465026855, -0.05611448734998703, -0.15374839305877686, 1.1035573482513428, 1.4212687015533447, -2.8475730419158936, -1.2563375234603882, -2.0724873542785645, -0.3500743508338928, 2.227769613265991], [0.027694888412952423, 0.3583533465862274, -0.6814001798629761, 0.21244901418685913, 0.6644299030303955, 0.4057246446609497, -0.6852797269821167, -1.149309515953064, 0.2014208883047104, 0.6326979398727417, 0.30222347378730774, 0.08183839172124863, 0.5553352236747742, 0.03822861984372139, 0.17198446393013, 0.048715803772211075, -0.680782675743103, 0.3604031205177307, -0.5443545579910278, -0.15864606201648712, 0.3829849064350128, 0.6224051713943481, -0.3593302369117737, -0.45905840396881104, 0.38180238008499146, 0.046758703887462616, 0.3809933066368103, 0.0171330776065588, 0.8649099469184875, 0.30740731954574585, 0.6100728511810303, 0.7482620477676392, 0.5104511976242065, 0.6838467717170715, 0.15523844957351685, -0.5959151983261108, 0.7600640654563904, -0.17885541915893555, 0.40504947304725647, -0.7244912981987, -0.26142650842666626, 0.19332604110240936, 1.2068687677383423, -0.010666449554264545, 0.629294216632843, 0.3786308169364929, 0.5101361870765686, -1.0181727409362793, -1.1939595937728882, -0.18063290417194366, -0.12139467149972916, 0.46883058547973633, -0.3126431107521057, -0.8205164670944214, 0.5141518712043762, 0.5334042310714722, 0.2139429897069931, 0.6498681306838989, 0.1419672667980194, 0.3980102241039276, -0.9556111693382263, -0.013814941979944706, 0.5557848811149597, 0.39292410016059875], [0.42151591181755066, -0.2416546642780304, -0.9493422508239746, -0.1374741494655609, 0.3670705258846283, 0.3061457574367523, -0.6790750026702881, -0.4289156198501587, 0.2278943955898285, 0.29818782210350037, 0.19646017253398895, -0.08530285954475403, -0.7298014163970947, -0.08108611404895782, 0.8016249537467957, 0.5278173089027405, 0.4909168481826782, 0.6148959398269653, -0.22284866869449615, -0.9900336861610413, 0.6124939918518066, 0.16555549204349518, -0.5923823714256287, -0.7561575770378113, -0.6102206707000732, 0.0442202128469944, 1.6252349615097046, -0.344531774520874, 0.5693109631538391, -0.7233094573020935, 0.05408237501978874, 0.43804216384887695, 1.196358323097229, -0.3343580663204193, -0.24889442324638367, -0.4373484253883362, -0.04961289092898369, -1.214609146118164, 0.6921297907829285, -0.6463092565536499, -0.3344578742980957, 0.9144295454025269, 0.05882272496819496, 0.4068050682544708, 0.044429998844861984, 0.7096424698829651, 0.6138027310371399, 0.7785281538963318, -0.690089225769043, -0.4158850908279419, 0.4930667579174042, 0.538522481918335, -0.7160302996635437, 0.8532178401947021, 0.4672328531742096, 0.01968664675951004, 0.7623652219772339, -0.5693080425262451, -0.02843809686601162, 0.5689406394958496, -0.8313474655151367, 0.6633500456809998, 0.5424626469612122, 0.2526788115501404], [0.7258607149124146, 0.21009674668312073, 0.7802979350090027, 1.152559518814087, 0.4085547924041748, 0.04052860662341118, -0.8030601739883423, -0.7352161407470703, 0.3569810390472412, 2.3760313987731934, -0.14016862213611603, 1.2997071743011475, -0.45409268140792847, 0.7255777716636658, -0.8703139424324036, 2.1575798988342285, -0.7207686901092529, -0.0457303449511528, -0.8377946019172668, 0.02829846926033497, 0.444767564535141, -0.14049775898456573, -0.9092734456062317, 1.1545038223266602, 0.5980205535888672, 0.5235862731933594, 1.0201290845870972, 0.17573514580726624, 1.2207111120224, 0.1559813916683197, -0.09093364328145981, 0.8166221380233765, 0.6249773502349854, -0.8490844964981079, 0.8231215476989746, -0.9499614238739014, 0.8010613322257996, -0.3460983335971832, -0.36677491664886475, -1.2920172214508057, 0.18901824951171875, 0.9263601303100586, 1.4238054752349854, -1.2504384517669678, 0.8624661564826965, 1.2517359256744385, 0.5218634009361267, -0.9661656022071838, -1.0573853254318237, 1.163600206375122, 0.8885852098464966, 0.09457436203956604, -0.20456162095069885, -0.9289972186088562, 1.8096678256988525, 1.3914076089859009, 0.6393796801567078, 0.8460740447044373, 0.18326710164546967, 0.271798700094223, -0.007745560258626938, 0.6325415968894958, 0.6974602341651917, 0.08491860330104828], [-0.16605690121650696, -0.07801713049411774, -1.5968981981277466, -0.7398610711097717, 0.362062931060791, -0.8768264651298523, 0.40992066264152527, 0.4838275611400604, 1.0200773477554321, -1.903239130973816, -0.6812313199043274, -2.1430864334106445, 0.4340405762195587, -0.47778335213661194, -0.28224682807922363, -1.6107920408248901, 0.5228396058082581, 0.6406041979789734, 0.4123882055282593, -1.111656904220581, -1.3856240510940552, -1.0752285718917847, 0.7368199825286865, 0.49845370650291443, 0.003945773467421532, 0.13358505070209503, -0.8745658993721008, -0.0927031934261322, -1.1161004304885864, 0.21082957088947296, -0.7031905651092529, -1.1612788438796997, 1.015564203262329, 0.2860945761203766, 0.5297389030456543, 0.6304567456245422, 0.21779632568359375, 0.019335370510816574, -1.1695886850357056, 0.8017519116401672, 0.7865521311759949, 0.26119130849838257, 0.10759567469358444, 0.9072139263153076, -0.7019733786582947, 0.05533856898546219, -0.41199618577957153, 0.6597709059715271, 0.08221294730901718, 0.26528066396713257, -2.0828893184661865, -0.44012588262557983, -0.1719285249710083, 0.7864904403686523, 0.27743348479270935, -0.7673084735870361, -1.0713566541671753, -1.497989535331726, 0.2994175851345062, 0.9526209831237793, -0.6266731023788452, -0.26075392961502075, -0.454105019569397, 0.17391303181648254], [-0.3290623426437378, -0.6883261203765869, -1.495417833328247, -0.8512157201766968, -0.46768122911453247, -0.3782229721546173, 0.46530604362487793, 0.8375141024589539, -0.6819570660591125, -1.1978681087493896, -1.2258564233779907, -0.8611735105514526, -0.013480345718562603, -0.6568451523780823, -0.2511839270591736, -0.6851394176483154, -0.35745665431022644, 1.0340821743011475, 0.5145063996315002, -0.2181382030248642, -0.19433966279029846, -0.5821269750595093, -0.1545957326889038, 1.6441692113876343, -0.8696355223655701, 0.17343713343143463, -0.559036135673523, -0.3909952640533447, -0.3984754681587219, 0.6040045619010925, -0.00268114753998816, -0.851029634475708, 0.10561871528625488, -0.7241086959838867, 0.7708558440208435, 0.7645516395568848, -0.3348637819290161, 0.2797767221927643, 0.08259161561727524, 1.1966910362243652, -0.024520214647054672, 0.12195666879415512, -0.47453442215919495, 0.9125148057937622, -0.8740711808204651, -0.36206960678100586, -0.8225128054618835, 0.6266706585884094, 0.5429251790046692, 0.5396704077720642, -0.855747640132904, -0.5083959102630615, 0.00842239335179329, 0.7682749032974243, -0.4795761704444885, -0.7119161486625671, -0.3752911686897278, -0.3963334262371063, 0.12327121943235397, 0.1744135320186615, 0.015698231756687164, 0.6606529951095581, -0.7967907190322876, -0.3595430850982666], [0.003162786364555359, -0.7127195596694946, 0.6500599980354309, -0.9668342471122742, -1.304672360420227, -0.9736412763595581, 1.2247202396392822, 0.603731632232666, 0.45413658022880554, -0.7731176614761353, -0.2645263075828552, -0.41732895374298096, -0.48685550689697266, -0.07986863702535629, -0.6252102255821228, -0.4522111415863037, 0.8961595296859741, 0.3654598593711853, 0.7930993437767029, 0.9536685347557068, -0.940531313419342, -0.7638461589813232, 0.3203159272670746, 0.571983814239502, -0.4384595453739166, -0.4547853171825409, -0.967648983001709, -0.024044105783104897, -0.6292788982391357, 0.1728910654783249, -0.855549693107605, -1.2791163921356201, -0.7296621799468994, -0.847244918346405, 0.519814133644104, 0.952322244644165, -0.11796233803033829, 0.5944200754165649, 0.07924085110425949, 1.0595906972885132, 0.9295523762702942, -0.538988471031189, -0.5793259143829346, 0.6893978714942932, -1.325419306755066, -0.8510956764221191, -1.1331441402435303, 0.20257596671581268, 0.422036349773407, 0.1722397804260254, -0.2337622195482254, -0.44310301542282104, 0.6792896389961243, 0.6736060976982117, -0.36399468779563904, -0.6311450004577637, -0.44175103306770325, -0.4641582667827606, -0.5090338587760925, -0.7236985564231873, 0.35916101932525635, 0.4214416444301605, -1.2297884225845337, -0.808709979057312], [-0.21306021511554718, -0.2700122594833374, 0.9639557003974915, -1.0294381380081177, -1.2776086330413818, -0.5991559624671936, 0.963378369808197, 1.0474597215652466, 0.8031089901924133, -0.9365885853767395, -0.35018256306648254, -0.4167306423187256, -1.726110577583313, 0.8121032118797302, -0.743557333946228, 0.13086552917957306, 0.2887266278266907, 0.05796627327799797, 0.7181780934333801, 0.543212354183197, -0.5272731184959412, -0.7118011116981506, 0.7363022565841675, 0.6371235847473145, -0.2387973815202713, -0.287000447511673, -0.46281149983406067, 0.13000720739364624, -1.031084656715393, 0.2100207358598709, -0.42139220237731934, -1.4087121486663818, -0.6303635835647583, -0.9290295243263245, 0.5067428350448608, 1.1757036447525024, -0.08359432965517044, 0.17258840799331665, -0.18482932448387146, 1.2775044441223145, 0.9887877106666565, -0.8965564370155334, -0.469432532787323, 0.32506394386291504, -1.2548466920852661, -0.5074980854988098, -1.0729361772537231, 0.7147122621536255, 0.3223804831504822, 1.0192276239395142, -1.0598853826522827, -0.07598479837179184, 0.5928356051445007, 0.5751367211341858, -0.5717419385910034, -1.0686355829238892, -0.13329511880874634, -1.1337015628814697, -0.7126400470733643, -0.564746618270874, 0.8039012551307678, 0.10166675597429276, -1.240157127380371, -0.20415255427360535], [-0.7716352939605713, 2.4949889183044434, -0.15531203150749207, -1.3048733472824097, 0.14606060087680817, -0.3118411600589752, -0.982361376285553, 0.06368905305862427, -2.311234951019287, -0.7399582266807556, -2.2595162391662598, -1.8953813314437866, 0.6921553611755371, 1.5001006126403809, 1.976363182067871, 3.0526130199432373, -0.9359689950942993, -3.054868698120117, -1.2419474124908447, -0.5197809934616089, 0.6188446283340454, 0.4380738139152527, -0.6378017663955688, 0.6011050343513489, 0.3566734194755554, 1.2190971374511719, 0.7539522647857666, -1.5808706283569336, -0.1768888682126999, 1.332223653793335, 1.4146161079406738, 1.0628716945648193, -0.2685316205024719, 0.3524416983127594, -1.5563517808914185, -0.9596619009971619, 1.2341797351837158, -0.948883593082428, -0.6584327220916748, -0.30054211616516113, 0.8068153262138367, -0.452400267124176, 0.7433071136474609, 0.1830129474401474, 0.9594166278839111, 1.2563531398773193, 0.549495279788971, -0.4148152768611908, 1.7705118656158447, 3.359043836593628, 1.1842012405395508, -3.825427770614624, -0.13437840342521667, -0.3811565637588501, -2.610399007797241, 0.6895643472671509, -1.0417546033859253, 0.04468124359846115, -0.25556135177612305, 1.0970391035079956, -0.9207215309143066, 1.864624261856079, -0.11234449595212936, 0.10290396213531494], [-0.9663630127906799, 0.586419939994812, -0.8528313636779785, -0.11893627792596817, 0.036670438945293427, -0.35783761739730835, -1.1425925493240356, -0.6294478178024292, -0.6035206913948059, -0.36505335569381714, -1.1915555000305176, -2.3196802139282227, 1.5622611045837402, 0.7271838784217834, 2.4058706760406494, -0.7362352609634399, -0.23774908483028412, -0.5133836269378662, -0.4984448552131653, 0.3315034806728363, 0.4801267385482788, -1.1670763492584229, -1.1359195709228516, 1.3320739269256592, 1.1362053155899048, -0.8221047520637512, -0.3879074156284332, -0.08604387193918228, 0.7971721291542053, -0.9860602021217346, -1.5244004726409912, 0.01906675659120083, -0.4277617931365967, 0.1734374314546585, -0.5140755772590637, -0.44880741834640503, -1.0700335502624512, 0.2569000720977783, -1.3044614791870117, -0.8321658372879028, -1.0463613271713257, 1.2079198360443115, 0.4883860945701599, 1.0485529899597168, -0.1013755351305008, -0.03276481106877327, 0.3257421553134918, -1.023070216178894, -0.019119661301374435, -0.5562476515769958, 0.25222039222717285, -2.1366686820983887, -0.795555830001831, 1.376783847808838, -0.4936688244342804, 0.47077465057373047, -2.9752395153045654, 0.9012224078178406, 0.6696224212646484, 0.8347831964492798, -0.034451596438884735, 2.0250062942504883, 0.2972666025161743, -0.60207200050354], [-0.13301506638526917, -0.4043586850166321, 0.29293373227119446, -0.36557674407958984, 0.1165267825126648, 0.109543576836586, 0.732292890548706, 0.5606204271316528, 0.5143600106239319, -0.43405163288116455, -0.3082215487957001, -0.31523242592811584, -0.13747607171535492, 0.04859029874205589, -0.3820499777793884, -0.6229346394538879, 0.42478296160697937, 0.1986595243215561, 0.4723394513130188, 0.5441880226135254, -0.3007512092590332, -0.26923060417175293, 0.40218693017959595, 0.2373325526714325, -0.06540796160697937, -0.25067758560180664, -0.7164627313613892, 0.07883395999670029, -0.6087583899497986, 0.06205091252923012, -0.5741757154464722, -0.9816355109214783, -0.478854775428772, -0.5547366738319397, 0.9002185463905334, 